{"learner":{"attributes":{"scikit_learn":"{\"_estimator_type\": \"regressor\"}"},"feature_names":[],"feature_types":[],"gradient_booster":{"model":{"cats":{"enc":[],"feature_segments":[],"sorted_idx":[]},"gbtree_model_param":{"num_parallel_tree":"1","num_trees":"500"},"iteration_indptr":[0,1,2,3,4,5,6,7,8,9,10,11,12,13,14,15,16,17,18,19,20,21,22,23,24,25,26,27,28,29,30,31,32,33,34,35,36,37,38,39,40,41,42,43,44,45,46,47,48,49,50,51,52,53,54,55,56,57,58,59,60,61,62,63,64,65,66,67,68,69,70,71,72,73,74,75,76,77,78,79,80,81,82,83,84,85,86,87,88,89,90,91,92,93,94,95,96,97,98,99,100,101,102,103,104,105,106,107,108,109,110,111,112,113,114,115,116,117,118,119,120,121,122,123,124,125,126,127,128,129,130,131,132,133,134,135,136,137,138,139,140,141,142,143,144,145,146,147,148,149,150,151,152,153,154,155,156,157,158,159,160,161,162,163,164,165,166,167,168,169,170,171,172,173,174,175,176,177,178,179,180,181,182,183,184,185,186,187,188,189,190,191,192,193,194,195,196,197,198,199,200,201,202,203,204,205,206,207,208,209,210,211,212,213,214,215,216,217,218,219,220,221,222,223,224,225,226,227,228,229,230,231,232,233,234,235,236,237,238,239,240,241,242,243,244,245,246,247,248,249,250,251,252,253,254,255,256,257,258,259,260,261,262,263,264,265,266,267,268,269,270,271,272,273,274,275,276,277,278,279,280,281,282,283,284,285,286,287,288,289,290,291,292,293,294,295,296,297,298,299,300,301,302,303,304,305,306,307,308,309,310,311,312,313,314,315,316,317,318,319,320,321,322,323,324,325,326,327,328,329,330,331,332,333,334,335,336,337,338,339,340,341,342,343,344,345,346,347,348,349,350,351,352,353,354,355,356,357,358,359,360,361,362,363,364,365,366,367,368,369,370,371,372,373,374,375,376,377,378,379,380,381,382,383,384,385,386,387,388,389,390,391,392,393,394,395,396,397,398,399,400,401,402,403,404,405,406,407,408,409,410,411,412,413,414,415,416,417,418,419,420,421,422,423,424,425,426,427,428,429,430,431,432,433,434,435,436,437,438,439,440,441,442,443,444,445,446,447,448,449,450,451,452,453,454,455,456,457,458,459,460,461,462,463,464,465,466,467,468,469,470,471,472,473,474,475,476,477,478,479,480,481,482,483,484,485,486,487,488,489,490,491,492,493,494,495,496,497,498,499,500],"tree_info":[0,0,0,0,0,0,0,0,0,0,0,0,0,0,0,0,0,0,0,0,0,0,0,0,0,0,0,0,0,0,0,0,0,0,0,0,0,0,0,0,0,0,0,0,0,0,0,0,0,0,0,0,0,0,0,0,0,0,0,0,0,0,0,0,0,0,0,0,0,0,0,0,0,0,0,0,0,0,0,0,0,0,0,0,0,0,0,0,0,0,0,0,0,0,0,0,0,0,0,0,0,0,0,0,0,0,0,0,0,0,0,0,0,0,0,0,0,0,0,0,0,0,0,0,0,0,0,0,0,0,0,0,0,0,0,0,0,0,0,0,0,0,0,0,0,0,0,0,0,0,0,0,0,0,0,0,0,0,0,0,0,0,0,0,0,0,0,0,0,0,0,0,0,0,0,0,0,0,0,0,0,0,0,0,0,0,0,0,0,0,0,0,0,0,0,0,0,0,0,0,0,0,0,0,0,0,0,0,0,0,0,0,0,0,0,0,0,0,0,0,0,0,0,0,0,0,0,0,0,0,0,0,0,0,0,0,0,0,0,0,0,0,0,0,0,0,0,0,0,0,0,0,0,0,0,0,0,0,0,0,0,0,0,0,0,0,0,0,0,0,0,0,0,0,0,0,0,0,0,0,0,0,0,0,0,0,0,0,0,0,0,0,0,0,0,0,0,0,0,0,0,0,0,0,0,0,0,0,0,0,0,0,0,0,0,0,0,0,0,0,0,0,0,0,0,0,0,0,0,0,0,0,0,0,0,0,0,0,0,0,0,0,0,0,0,0,0,0,0,0,0,0,0,0,0,0,0,0,0,0,0,0,0,0,0,0,0,0,0,0,0,0,0,0,0,0,0,0,0,0,0,0,0,0,0,0,0,0,0,0,0,0,0,0,0,0,0,0,0,0,0,0,0,0,0,0,0,0,0,0,0,0,0,0,0,0,0,0,0,0,0,0,0,0,0,0,0,0,0,0,0,0,0,0,0,0,0,0,0,0,0,0,0,0,0,0,0,0,0,0,0,0,0,0,0,0,0,0,0,0,0,0,0,0,0,0,0,0,0,0,0,0,0,0,0,0,0,0,0,0,0,0,0,0,0,0,0,0,0,0,0,0,0,0,0,0,0,0,0,0],"trees":[{"base_weights":[-2.5098503E-1,-5.0711536E1,2.3454468E1,-6.32344E1,-3.0196415E1,6.9461293E0,3.625162E1,-6.967317E1,-5.522371E1,-3.8737984E1,-2.1309654E1,-2.8946993E0,1.3000422E1,2.8793165E1,4.79289E1,-3.9061565E0,-3.3069355E0,-4.5965256E1,-2.8888633E0,-4.632365E1,-3.4192265E1,-2.8159853E1,-1.7524412E1,-1.1308666E1,2.0718262E0,9.820381E0,2.1712286E1,2.6035585E1,3.361614E1,4.3383366E1,5.4282383E1,-2.4018161E0,-1.2147651E0,-1.4697809E0,-2.4017599E0,-1.8299118E0,-1.2416369E0,-3.057949E1,-8.898239E-1,-1.9289503E1,-6.273611E0,-2.3609939E0,-9.207963E0,-6.271778E0,5.299041E0,1.2659242E1,2.431148E0,1.8645527E1,3.061427E1,2.9132057E1,2.1373228E1,2.4833332E1,3.4891056E1,3.804284E1,4.601402E1,1.3772467E0,5.5674488E1,-1.2686461E0,-1.9473664E0,-1.144369E0,-8.2255805E-1,-4.515266E-1,7.888602E-2,-1.5025082E-1,-5.776952E-1,-5.785702E-1,4.1360041E-1,5.0392145E-1,-3.389702E-1,2.3789982E-1,8.417794E-1,2.7483046E-1,-3.6131686E-1,5.483642E-1,1.0213374E0,5.829859E-1,1.6451037E0,1.2105999E0,1.5697621E0,7.7885324E-1,1.345534E0,1.2868797E0,6.0220575E-1,1.6656637E0,2.034145E0,1.3314071E0,2.0270088E0,2.3466308E0,1.4041468E0,2.5429618E0,3.078723E0],"categories":[],"categories_nodes":[],"categories_segments":[],"categories_sizes":[],"default_left":[0,0,0,0,0,0,0,0,0,0,0,0,0,0,0,0,0,0,0,0,0,0,0,0,0,0,0,0,0,0,0,0,0,0,0,0,0,0,0,0,0,0,0,0,0,0,0,0,0,0,0,0,0,0,0,0,0,0,0,0,0,0,0,0,0,0,0,0,0,0,0,0,0,0,0,0,0,0,0,0,0,0,0,0,0,0,0,0,0,0,0],"id":0,"left_children":[1,3,5,7,9,11,13,15,17,19,21,23,25,27,29,-1,-1,31,-1,33,35,37,39,41,43,45,47,49,51,53,55,-1,-1,-1,-1,-1,-1,57,-1,59,61,-1,63,65,67,69,71,73,75,77,79,81,83,85,87,-1,89,-1,-1,-1,-1,-1,-1,-1,-1,-1,-1,-1,-1,-1,-1,-1,-1,-1,-1,-1,-1,-1,-1,-1,-1,-1,-1,-1,-1,-1,-1,-1,-1,-1,-1],"loss_changes":[3.1998045E6,2.1773775E5,3.8423662E5,2.347675E4,2.3914125E4,4.7463727E4,8.788425E4,3.47975E3,3.0315625E3,4.097625E3,3.7025547E3,1.272796E4,1.3441734E4,7.4710625E3,9.1294375E3,0E0,0E0,1.383875E3,0E0,2.8965625E2,1.4945312E3,8.551875E2,2.0013086E3,8.0841426E3,5.2030444E3,7.582367E3,3.000582E3,5.2047812E3,1.6469688E3,1.5707188E3,4.4879688E3,0E0,0E0,0E0,0E0,0E0,0E0,9.2233984E2,0E0,5.5904297E2,3.613208E2,0E0,1.5354121E3,4.2581855E3,8.092788E3,8.563301E3,3.0592212E3,1.1404961E3,9.9957227E2,1.9067031E3,4.8723984E3,5.6308594E1,4.1015625E2,1.3083203E3,1.2110625E3,0E0,1.2038438E3,0E0,0E0,0E0,0E0,0E0,0E0,0E0,0E0,0E0,0E0,0E0,0E0,0E0,0E0,0E0,0E0,0E0,0E0,0E0,0E0,0E0,0E0,0E0,0E0,0E0,0E0,0E0,0E0,0E0,0E0,0E0,0E0,0E0,0E0],"parents":[2147483647,0,0,1,1,2,2,3,3,4,4,5,5,6,6,7,7,8,8,9,9,10,10,11,11,12,12,13,13,14,14,17,17,19,19,20,20,21,21,22,22,23,23,24,24,25,25,26,26,27,27,28,28,29,29,30,30,37,37,39,39,40,40,42,42,43,43,44,44,45,45,46,46,47,47,48,48,49,49,50,50,51,51,52,52,53,53,54,54,56,56],"right_children":[2,4,6,8,10,12,14,16,18,20,22,24,26,28,30,-1,-1,32,-1,34,36,38,40,42,44,46,48,50,52,54,56,-1,-1,-1,-1,-1,-1,58,-1,60,62,-1,64,66,68,70,72,74,76,78,80,82,84,86,88,-1,90,-1,-1,-1,-1,-1,-1,-1,-1,-1,-1,-1,-1,-1,-1,-1,-1,-1,-1,-1,-1,-1,-1,-1,-1,-1,-1,-1,-1,-1,-1,-1,-1,-1,-1],"split_conditions":[-4.3828258E-1,-1.1989802E0,5.086512E-1,-1.6036448E0,-8.046515E-1,2.2577924E-1,9.9954706E-1,-1.8851806E0,-9.995278E-1,-1.2207831E0,-8.483385E-1,-1.7624708E-1,8.074793E-1,8.7963897E-1,1.2791318E0,-3.9061565E0,-3.3069355E0,-8.2591444E-2,-2.8888633E0,-9.995278E-1,-4.1084307E-1,-5.337478E-2,-1.1095314E-1,-1.2571757E0,-3.328717E-1,1.364082E0,1.8428044E-1,7.045695E-1,2.3290402E-1,7.366206E-1,-1.0040758E0,-2.4018161E0,-1.2147651E0,-1.4697809E0,-2.4017599E0,-1.8299118E0,-1.2416369E0,3.6219516E-1,-8.898239E-1,5.169151E-1,1.5411618E-1,-2.3609939E0,-9.995278E-1,8.5889363E-1,9.977267E-1,-1.2290232E0,5.349102E-1,-1.3704311E0,-1.3704311E0,2.2507417E-1,7.5610495E-1,6.973759E-1,9.681758E-1,-2.1175748E-1,1.2226741E0,1.3772467E0,6.2095344E-1,-1.2686461E0,-1.9473664E0,-1.144369E0,-8.2255805E-1,-4.515266E-1,7.888602E-2,-1.5025082E-1,-5.776952E-1,-5.785702E-1,4.1360041E-1,5.0392145E-1,-3.389702E-1,2.3789982E-1,8.417794E-1,2.7483046E-1,-3.6131686E-1,5.483642E-1,1.0213374E0,5.829859E-1,1.6451037E0,1.2105999E0,1.5697621E0,7.7885324E-1,1.345534E0,1.2868797E0,6.0220575E-1,1.6656637E0,2.034145E0,1.3314071E0,2.0270088E0,2.3466308E0,1.4041468E0,2.5429618E0,3.078723E0],"split_indices":[16,18,16,18,16,18,16,18,7,16,17,16,22,17,16,0,0,19,0,7,22,14,17,18,18,6,25,6,14,18,6,0,0,0,0,0,0,1,0,23,14,0,7,19,6,6,19,6,6,14,18,12,22,19,6,0,19,0,0,0,0,0,0,0,0,0,0,0,0,0,0,0,0,0,0,0,0,0,0,0,0,0,0,0,0,0,0,0,0,0,0],"split_type":[0,0,0,0,0,0,0,0,0,0,0,0,0,0,0,0,0,0,0,0,0,0,0,0,0,0,0,0,0,0,0,0,0,0,0,0,0,0,0,0,0,0,0,0,0,0,0,0,0,0,0,0,0,0,0,0,0,0,0,0,0,0,0,0,0,0,0,0,0,0,0,0,0,0,0,0,0,0,0,0,0,0,0,0,0,0,0,0,0,0,0],"sum_hessian":[2.673E3,8.54E2,1.819E3,5.29E2,3.25E2,7.95E2,1.024E3,2.89E2,2.4E2,1.64E2,1.61E2,3.03E2,4.92E2,6.27E2,3.97E2,7.9E1,2.1E2,5.6E1,1.84E2,5.8E1,1.06E2,5.5E1,1.06E2,1.12E2,1.91E2,3.62E2,1.3E2,4.03E2,2.24E2,2.36E2,1.61E2,5E1,6E0,7E0,5.1E1,8.2E1,2.4E1,4.3E1,1.2E1,9.1E1,1.5E1,5E0,1.07E2,5.3E1,1.38E2,2.61E2,1.01E2,9.9E1,3.1E1,2.39E2,1.64E2,3.1E1,1.93E2,8.3E1,1.53E2,9E0,1.52E2,2.9E1,1.4E1,3.7E1,5.4E1,1.1E1,4E0,3E1,7.7E1,3.9E1,1.4E1,9.9E1,3.9E1,9.1E1,1.7E2,7.7E1,2.4E1,2E1,7.9E1,4E0,2.7E1,7.9E1,1.6E2,8.2E1,8.2E1,2.8E1,3E0,1.57E2,3.6E1,1.7E1,6.6E1,1.44E2,9E0,8.9E1,6.3E1],"tree_param":{"num_deleted":"0","num_feature":"26","num_nodes":"91","size_leaf_vector":"1"}},{"base_weights":[2.6674938E-1,-4.711928E1,2.3494059E1,-6.0572556E1,-2.5952665E1,1.0006561E1,3.802421E1,-7.031625E1,-5.505884E1,-3.4765427E1,-1.8932005E1,5.906836E-3,1.6794472E1,3.0697237E1,4.7816193E1,-3.946853E0,-3.2846947E0,-2.9261768E0,-2.4751184E0,-1.9822559E0,-2.9998882E1,-2.3163242E1,-1.4079973E1,-9.180456E0,3.8051326E0,1.1702567E1,2.0773466E1,2.544221E1,3.4570988E1,4.1705917E1,5.4140263E1,-3.1409649E1,-1.1193233E0,-2.3523518E1,-4.2603514E-1,-1.7882092E1,-9.329139E0,-4.2123938E0,-1.1346269E1,-1.1235793E0,6.5956025E0,1.3403318E1,7.102045E0,1.8040674E1,2.3605265E1,2.7185839E1,1.9368603E1,1.8118168E1,3.5110874E1,2.5037481E1,4.2395855E1,1.7052583E0,5.514114E1,-1.750677E0,-1.35455E0,-1.2273983E0,-8.800545E-1,-9.260338E-1,-2.9416034E-1,-5.52484E-1,-7.952333E-2,-4.5912787E-1,-6.0783762E-2,-6.0307485E-1,-4.8750993E-2,-1.7011799E-1,3.397549E-1,2.9879346E-1,1.2915814E0,9.776344E-2,6.966538E-1,-2.6612803E-2,4.7316098E-1,5.891949E-1,9.634269E-1,1.0292336E0,1.2924207E0,1.0841433E0,1.4488107E0,1.8006027E-1,1.0138478E0,1.1619754E0,3.652329E-1,1.6245584E0,1.9269466E0,5.5570406E-1,1.4701321E0,1.364611E0,2.1467977E0,2.5820527E0,3.0721211E0],"categories":[],"categories_nodes":[],"categories_segments":[],"categories_sizes":[],"default_left":[0,0,0,0,0,0,0,0,0,0,0,0,0,0,0,0,0,0,0,0,0,0,0,0,0,0,0,0,0,0,0,0,0,0,0,0,0,0,0,0,0,0,0,0,0,0,0,0,0,0,0,0,0,0,0,0,0,0,0,0,0,0,0,0,0,0,0,0,0,0,0,0,0,0,0,0,0,0,0,0,0,0,0,0,0,0,0,0,0,0,0],"id":1,"left_children":[1,3,5,7,9,11,13,15,17,19,21,23,25,27,29,-1,-1,-1,-1,-1,31,33,35,37,39,41,43,45,47,49,51,53,-1,55,-1,57,59,61,63,65,67,69,71,73,75,77,79,81,83,85,87,-1,89,-1,-1,-1,-1,-1,-1,-1,-1,-1,-1,-1,-1,-1,-1,-1,-1,-1,-1,-1,-1,-1,-1,-1,-1,-1,-1,-1,-1,-1,-1,-1,-1,-1,-1,-1,-1,-1,-1],"loss_changes":[2.921129E6,2.4701488E5,3.486468E5,2.4750875E4,2.0434594E4,6.27905E4,6.0010375E4,2.33125E3,3.73375E3,2.292625E3,3.611914E3,1.3122295E4,1.0917266E4,9.15025E3,1.183675E4,0E0,0E0,0E0,0E0,0E0,1.5060938E2,3.2916797E2,1.4922715E3,1.1342383E3,3.6663682E3,1.8118984E3,1.9535156E3,1.7244844E3,1.8545625E3,1.1167812E3,1.63975E3,5.689453E1,0E0,1.5830078E2,0E0,2.7171387E2,5.5369385E2,5.0909344E2,5.5068945E2,1.773138E3,1.8690571E3,1.0446191E3,1.2316921E3,1.00671484E3,4.660625E2,9.7258594E2,6.550332E2,4.3636523E2,1.1744062E3,2.7694385E2,2.9765625E2,0E0,4.76875E2,0E0,0E0,0E0,0E0,0E0,0E0,0E0,0E0,0E0,0E0,0E0,0E0,0E0,0E0,0E0,0E0,0E0,0E0,0E0,0E0,0E0,0E0,0E0,0E0,0E0,0E0,0E0,0E0,0E0,0E0,0E0,0E0,0E0,0E0,0E0,0E0,0E0,0E0],"parents":[2147483647,0,0,1,1,2,2,3,3,4,4,5,5,6,6,7,7,8,8,9,9,10,10,11,11,12,12,13,13,14,14,20,20,21,21,22,22,23,23,24,24,25,25,26,26,27,27,28,28,29,29,30,30,31,31,33,33,35,35,36,36,37,37,38,38,39,39,40,40,41,41,42,42,43,43,44,44,45,45,46,46,47,47,48,48,49,49,50,50,52,52],"right_children":[2,4,6,8,10,12,14,16,18,20,22,24,26,28,30,-1,-1,-1,-1,-1,32,34,36,38,40,42,44,46,48,50,52,54,-1,56,-1,58,60,62,64,66,68,70,72,74,76,78,80,82,84,86,88,-1,90,-1,-1,-1,-1,-1,-1,-1,-1,-1,-1,-1,-1,-1,-1,-1,-1,-1,-1,-1,-1,-1,-1,-1,-1,-1,-1,-1,-1,-1,-1,-1,-1,-1,-1,-1,-1,-1,-1],"split_conditions":[-3.4885392E-1,-1.1392167E0,6.3986546E-1,-1.6268556E0,-7.6873106E-1,1.9077949E-1,1.0441645E0,-1.8923478E0,-1.4066793E0,-8.919493E-1,-4.7450083E-1,-1.6984968E-1,3.9364415E-1,7.684857E-1,1.1558877E0,-3.946853E0,-3.2846947E0,-2.9261768E0,-2.4751184E0,-1.9822559E0,-3.7502772E-1,-1.1095314E-1,-4.7420853E-1,-5.01333E-1,-5.238414E-2,1.2226741E0,4.8335475E-1,7.045695E-1,-1.2290232E0,7.091444E-1,-1.0040758E0,-9.03822E-1,-1.1193233E0,2.8208524E-1,-4.2603514E-1,4.1763946E-1,2.5268582E-1,-5.584831E-1,1.1965312E0,4.7298774E-1,8.135413E-1,-3.7641186E-1,1.7026612E-1,-1.2290232E0,6.458372E-1,4.318179E-1,2.2838874E-1,8.6103415E-1,8.864368E-1,-7.109186E-1,4.6679E-1,1.7052583E0,1.4531504E0,-1.750677E0,-1.35455E0,-1.2273983E0,-8.800545E-1,-9.260338E-1,-2.9416034E-1,-5.52484E-1,-7.952333E-2,-4.5912787E-1,-6.0783762E-2,-6.0307485E-1,-4.8750993E-2,-1.7011799E-1,3.397549E-1,2.9879346E-1,1.2915814E0,9.776344E-2,6.966538E-1,-2.6612803E-2,4.7316098E-1,5.891949E-1,9.634269E-1,1.0292336E0,1.2924207E0,1.0841433E0,1.4488107E0,1.8006027E-1,1.0138478E0,1.1619754E0,3.652329E-1,1.6245584E0,1.9269466E0,5.5570406E-1,1.4701321E0,1.364611E0,2.1467977E0,2.5820527E0,3.0721211E0],"split_indices":[15,10,15,10,15,15,15,10,10,10,10,10,10,10,10,0,0,0,0,0,22,17,15,13,15,6,15,6,6,16,6,15,0,14,0,14,24,10,1,22,20,17,10,6,10,10,10,17,15,6,10,0,10,0,0,0,0,0,0,0,0,0,0,0,0,0,0,0,0,0,0,0,0,0,0,0,0,0,0,0,0,0,0,0,0,0,0,0,0,0,0],"split_type":[0,0,0,0,0,0,0,0,0,0,0,0,0,0,0,0,0,0,0,0,0,0,0,0,0,0,0,0,0,0,0,0,0,0,0,0,0,0,0,0,0,0,0,0,0,0,0,0,0,0,0,0,0,0,0,0,0,0,0,0,0,0,0,0,0,0,0,0,0,0,0,0,0,0,0,0,0,0,0,0,0,0,0,0,0,0,0,0,0,0,0],"sum_hessian":[2.652E3,8.72E2,1.78E3,5.32E2,3.4E2,9.24E2,8.56E2,1.88E2,3.44E2,1.49E2,1.91E2,3.74E2,5.5E2,4.92E2,3.64E2,6E1,1.28E2,2.06E2,1.38E2,7E1,7.9E1,1E2,9.1E1,1.09E2,2.65E2,2.43E2,3.07E2,2.12E2,2.8E2,1.89E2,1.75E2,6.4E1,1.5E1,9.7E1,3E0,4.9E1,4.2E1,3.4E1,7.5E1,9.6E1,1.69E2,1.76E2,6.7E1,1.6E2,1.47E2,1.62E2,5E1,1E1,2.7E2,9E0,1.8E2,1E1,1.65E2,3.1E1,3.3E1,8E1,1.7E1,4.6E1,3E0,3.4E1,8E0,1.2E1,2.2E1,7E1,5E0,7.5E1,2.1E1,1.65E2,4E0,8E0,1.68E2,1.6E1,5.1E1,2.8E1,1.32E2,6.7E1,8E1,4.3E1,1.19E2,3E0,4.7E1,6E0,4E0,1.59E2,1.11E2,3E0,6E0,8E0,1.72E2,1.12E2,5.3E1],"tree_param":{"num_deleted":"0","num_feature":"26","num_nodes":"91","size_leaf_vector":"1"}},{"base_weights":[8.946709E-2,-4.469936E1,2.2170591E1,-5.655527E1,-2.5018597E1,6.2008276E0,3.3092125E1,-6.2521763E1,-4.8436424E1,-3.5108505E1,-1.7961294E1,-2.9565182E0,1.0861836E1,2.6253199E1,4.3973164E1,-3.6522095E0,-5.9893158E1,-5.0355988E1,-3.504106E1,-3.6638607E1,-9.575278E-1,-1.9272861E1,-8.539662E0,-3.9724686E0,9.38523E0,9.274065E0,1.7490715E1,2.2259933E1,2.9786783E1,3.8348087E1,4.9355816E1,-3.2266114E0,-2.8352883E0,-4.745527E1,-2.8364007E0,-1.8108864E0,-8.7154067E-1,-1.5890685E0,-4.120735E1,-2.100242E1,-1.5178494E1,-1.0743027E1,-1.0100956E0,-9.594727E0,-2.4981909E0,1.56397915E1,3.4055681E0,6.671584E0,1.2480769E1,1.4558874E1,2.1846603E1,1.4369174E1,2.3540442E1,2.7486637E1,1.6255369E0,2.9117388E1,3.924769E1,1.518732E0,5.027498E1,-2.4158993E0,-1.6193672E0,-2.1365192E0,-1.297693E0,-1.0834426E0,-6.9469494E-1,-9.258931E-1,-5.7712924E-1,-6.7381835E-1,-2.946897E-1,1.2864463E-1,-2.18278E-1,-3.4973305E-1,-5.9996873E-1,-2.0311265E-1,3.740532E-2,3.1991756E-1,9.5887274E-1,-8.7683946E-2,2.785998E-1,-1.757208E-1,3.6675784E-1,6.849359E-1,3.799065E-1,8.9202577E-1,5.560972E-1,1.3000605E0,7.283525E-1,-5.715079E-2,7.93806E-1,1.2383302E0,1.0189389E0,1.4011868E0,8.021671E-1,5.361585E-1,1.7669386E0,1.7903963E0,2.1061244E0,2.3627393E0,2.8708174E0],"categories":[],"categories_nodes":[],"categories_segments":[],"categories_sizes":[],"default_left":[0,0,0,0,0,0,0,0,0,0,0,0,0,0,0,0,0,0,0,0,0,0,0,0,0,0,0,0,0,0,0,0,0,0,0,0,0,0,0,0,0,0,0,0,0,0,0,0,0,0,0,0,0,0,0,0,0,0,0,0,0,0,0,0,0,0,0,0,0,0,0,0,0,0,0,0,0,0,0,0,0,0,0,0,0,0,0,0,0,0,0,0,0,0,0,0,0,0,0],"id":2,"left_children":[1,3,5,7,9,11,13,15,17,19,21,23,25,27,29,-1,31,33,35,37,-1,39,41,43,45,47,49,51,53,55,57,-1,-1,59,-1,-1,-1,-1,61,63,65,67,69,71,73,75,77,79,81,83,85,87,89,91,-1,93,95,-1,97,-1,-1,-1,-1,-1,-1,-1,-1,-1,-1,-1,-1,-1,-1,-1,-1,-1,-1,-1,-1,-1,-1,-1,-1,-1,-1,-1,-1,-1,-1,-1,-1,-1,-1,-1,-1,-1,-1,-1,-1],"loss_changes":[2.6386188E6,2.0414362E5,3.114692E5,2.355475E4,2.3076203E4,3.1063059E4,7.77925E4,4.269125E3,4.321E3,2.6135156E3,2.2793477E3,3.1212378E3,4.9082305E3,8.560031E3,1.0451875E4,0E0,1.138125E2,1.0866562E3,4.7132812E1,1.4126406E3,0E0,9.026875E2,4.19323E2,1.8646606E3,6.554363E2,3.1778633E3,8.53209E2,2.8003594E3,1.2557188E3,5.44375E2,2.0414688E3,0E0,0E0,3.379375E2,0E0,0E0,0E0,0E0,2.780078E2,2.59125E2,4.5104004E2,1.8372803E2,9.556952E1,2.0802441E2,9.274592E2,1.6897607E2,1.3310178E2,1.4996553E3,9.2853125E2,4.5285156E2,6.7571094E2,1.094918E3,5.219844E2,7.3221875E2,0E0,2.1340742E3,2.9353125E2,0E0,1.4605938E3,0E0,0E0,0E0,0E0,0E0,0E0,0E0,0E0,0E0,0E0,0E0,0E0,0E0,0E0,0E0,0E0,0E0,0E0,0E0,0E0,0E0,0E0,0E0,0E0,0E0,0E0,0E0,0E0,0E0,0E0,0E0,0E0,0E0,0E0,0E0,0E0,0E0,0E0,0E0,0E0],"parents":[2147483647,0,0,1,1,2,2,3,3,4,4,5,5,6,6,7,7,8,8,9,9,10,10,11,11,12,12,13,13,14,14,16,16,17,17,18,18,19,19,21,21,22,22,23,23,24,24,25,25,26,26,27,27,28,28,29,29,30,30,33,33,38,38,39,39,40,40,41,41,42,42,43,43,44,44,45,45,46,46,47,47,48,48,49,49,50,50,51,51,52,52,53,53,55,55,56,56,58,58],"right_children":[2,4,6,8,10,12,14,16,18,20,22,24,26,28,30,-1,32,34,36,38,-1,40,42,44,46,48,50,52,54,56,58,-1,-1,60,-1,-1,-1,-1,62,64,66,68,70,72,74,76,78,80,82,84,86,88,90,92,-1,94,96,-1,98,-1,-1,-1,-1,-1,-1,-1,-1,-1,-1,-1,-1,-1,-1,-1,-1,-1,-1,-1,-1,-1,-1,-1,-1,-1,-1,-1,-1,-1,-1,-1,-1,-1,-1,-1,-1,-1,-1,-1,-1],"split_conditions":[-3.4885392E-1,-1.1049919E0,4.8335475E-1,-1.5816284E0,-7.813882E-1,6.274739E-2,9.9597E-1,-1.890667E0,-1.1102312E0,-4.36284E-1,-6.739068E-2,6.2224674E-1,8.2383376E-1,7.1215737E-1,1.2216083E0,-3.6522095E0,-3.589943E-1,9.977267E-1,-5.625653E-1,9.977267E-1,-9.575278E-1,-4.7420853E-1,2.5268582E-1,-2.512477E-1,6.0654616E-1,2.9033297E-1,9.592741E-1,3.123858E-1,8.6331314E-1,-1.0040758E0,-1.0040758E0,-3.2266114E0,-2.8352883E0,-3.55329E-1,-2.8364007E0,-1.8108864E0,-8.7154067E-1,-1.5890685E0,-3.5257062E-1,4.681523E-2,-4.0370905E-1,8.389586E-1,1.17522866E-1,2.999835E-1,7.1976775E-1,7.9059976E-1,5.2182436E-1,-3.1493238E-1,1.2226741E0,-8.2591444E-2,1.2355691E0,-1.5448587E0,9.977267E-1,1.364082E0,1.6255369E0,5.692565E-1,-4.0843813E-3,1.518732E0,1.5258671E0,-2.4158993E0,-1.6193672E0,-2.1365192E0,-1.297693E0,-1.0834426E0,-6.9469494E-1,-9.258931E-1,-5.7712924E-1,-6.7381835E-1,-2.946897E-1,1.2864463E-1,-2.18278E-1,-3.4973305E-1,-5.9996873E-1,-2.0311265E-1,3.740532E-2,3.1991756E-1,9.5887274E-1,-8.7683946E-2,2.785998E-1,-1.757208E-1,3.6675784E-1,6.849359E-1,3.799065E-1,8.9202577E-1,5.560972E-1,1.3000605E0,7.283525E-1,-5.715079E-2,7.93806E-1,1.2383302E0,1.0189389E0,1.4011868E0,8.021671E-1,5.361585E-1,1.7669386E0,1.7903963E0,2.1061244E0,2.3627393E0,2.8708174E0],"split_indices":[15,18,15,18,15,15,15,11,15,24,17,18,20,15,15,0,0,6,15,6,0,15,24,15,19,15,18,18,15,6,6,0,0,19,0,0,0,0,18,18,20,1,17,19,1,12,20,18,6,19,19,1,6,6,0,17,19,0,15,0,0,0,0,0,0,0,0,0,0,0,0,0,0,0,0,0,0,0,0,0,0,0,0,0,0,0,0,0,0,0,0,0,0,0,0,0,0,0,0],"split_type":[0,0,0,0,0,0,0,0,0,0,0,0,0,0,0,0,0,0,0,0,0,0,0,0,0,0,0,0,0,0,0,0,0,0,0,0,0,0,0,0,0,0,0,0,0,0,0,0,0,0,0,0,0,0,0,0,0,0,0,0,0,0,0,0,0,0,0,0,0,0,0,0,0,0,0,0,0,0,0,0,0,0,0,0,0,0,0,0,0,0,0,0,0,0,0,0,0,0,0],"sum_hessian":[2.666E3,8.8E2,1.786E3,5.48E2,3.32E2,7.26E2,1.06E3,3.12E2,2.36E2,1.35E2,1.97E2,2.45E2,4.81E2,6.53E2,4.07E2,5.7E1,2.55E2,2.04E2,3.2E1,1.22E2,1.3E1,1.72E2,2.5E1,2.27E2,1.8E1,3.9E2,9.1E1,3.1E2,3.43E2,2.03E2,2.04E2,9.6E1,1.59E2,1.46E2,5.8E1,2.9E1,3E0,6.3E1,5.9E1,1.18E2,5.4E1,1.9E1,6E0,4.6E1,1.81E2,8E0,1E1,2.17E2,1.73E2,5.7E1,3.4E1,4.5E1,2.65E2,1.92E2,1.51E2,2.1E1,1.82E2,1.1E1,1.93E2,1.36E2,1E1,5.2E1,7E0,1.06E2,1.2E1,2.6E1,2.8E1,1.1E1,8E0,3E0,3E0,2.4E1,2.2E1,1.22E2,5.9E1,3E0,5E0,3E0,7E0,1.3E1,2.04E2,1.37E2,3.6E1,2.7E1,3E1,2E1,1.4E1,4E0,4.1E1,1.86E2,7.9E1,1.82E2,1E1,6E0,1.5E1,8.9E1,9.3E1,1.41E2,5.2E1],"tree_param":{"num_deleted":"0","num_feature":"26","num_nodes":"99","size_leaf_vector":"1"}},{"base_weights":[-3.7964225E-2,-4.2822266E1,2.1187954E1,-5.4771744E1,-2.4861702E1,7.0739174E0,3.2398937E1,-3.397345E0,-5.163127E1,-3.2637695E1,-1.7204256E1,-8.40971E-1,1.3152252E1,2.573634E1,4.2436623E1,-2.7389657E0,-2.2891E0,-3.5476166E1,-2.5694616E1,-2.124674E1,-1.2498221E1,-5.962915E0,3.972082E0,6.9322166E0,1.5508436E1,2.2041506E1,2.9765991E1,3.7575493E1,4.8763226E1,-1.8461115E0,-1.4163353E0,-8.000083E-1,-1.3745579E0,-2.1585768E1,-3.9714354E-1,-1.3444259E1,-2.794319E0,-1.0192963E1,-3.2201643E0,7.046326E-1,6.462831E0,4.961103E0,1.7126064E1,1.4031941E1,2.1591324E1,2.4103989E1,1.70504E1,2.4357922E1,3.1301823E1,2.3656353E1,3.8232708E1,1.5046926E0,4.9990055E1,-1.1222521E0,-7.5326365E-1,-6.9376886E-1,-9.334782E-2,8.451317E-2,-2.6674935E-1,-4.0697035E-1,-7.2520864E-1,2.6846823E-1,-2.1474703E-1,-1.4609557E-1,3.208704E-1,2.5610083E-1,6.9457114E-1,1.4310998E-2,3.818303E-1,6.071872E-1,1.1534538E0,7.2897E-1,3.282119E-1,1.2131101E0,8.6133856E-1,8.0539817E-1,1.2361996E0,2.5983813E-1,9.028191E-1,8.5262585E-1,1.4103178E0,1.4821336E0,1.8546565E0,1.4581786E0,7.3776835E-1,1.9252518E0,7.0060414E-1,2.653134E0,2.2042692E0],"categories":[],"categories_nodes":[],"categories_segments":[],"categories_sizes":[],"default_left":[0,0,0,0,0,0,0,0,0,0,0,0,0,0,0,0,0,0,0,0,0,0,0,0,0,0,0,0,0,0,0,0,0,0,0,0,0,0,0,0,0,0,0,0,0,0,0,0,0,0,0,0,0,0,0,0,0,0,0,0,0,0,0,0,0,0,0,0,0,0,0,0,0,0,0,0,0,0,0,0,0,0,0,0,0,0,0,0,0],"id":3,"left_children":[1,3,5,7,9,11,13,-1,15,17,19,21,23,25,27,-1,-1,29,31,33,35,37,39,41,43,45,47,49,51,-1,-1,-1,-1,53,-1,55,57,59,61,63,65,67,69,71,73,75,77,79,81,83,85,-1,87,-1,-1,-1,-1,-1,-1,-1,-1,-1,-1,-1,-1,-1,-1,-1,-1,-1,-1,-1,-1,-1,-1,-1,-1,-1,-1,-1,-1,-1,-1,-1,-1,-1,-1,-1,-1],"loss_changes":[2.4483362E6,1.905E5,2.849013E5,1.8657625E4,2.0809875E4,3.8451652E4,6.6045625E4,0E0,5.52875E3,2.5706094E3,3.2124883E3,8.602845E3,6.5145547E3,8.361406E3,1.043E4,0E0,0E0,2.1923438E2,5.136953E2,2.6309766E2,7.5949023E2,1.9265679E3,1.4596409E3,2.4445752E3,2.6303672E3,2.879E3,1.6157656E3,1.1934062E3,2.3813125E3,0E0,0E0,0E0,0E0,1.8477734E2,0E0,3.668252E2,1.1192654E2,4.639995E2,9.8306323E2,1.6557935E3,9.429038E2,1.335342E3,3.085332E2,9.8966016E2,3.0063867E2,7.0815625E2,1.0605195E3,1.4262578E3,1.0076719E3,2.0254443E2,8.9309375E2,0E0,5.175625E2,0E0,0E0,0E0,0E0,0E0,0E0,0E0,0E0,0E0,0E0,0E0,0E0,0E0,0E0,0E0,0E0,0E0,0E0,0E0,0E0,0E0,0E0,0E0,0E0,0E0,0E0,0E0,0E0,0E0,0E0,0E0,0E0,0E0,0E0,0E0,0E0],"parents":[2147483647,0,0,1,1,2,2,3,3,4,4,5,5,6,6,8,8,9,9,10,10,11,11,12,12,13,13,14,14,17,17,18,18,19,19,20,20,21,21,22,22,23,23,24,24,25,25,26,26,27,27,28,28,33,33,35,35,36,36,37,37,38,38,39,39,40,40,41,41,42,42,43,43,44,44,45,45,46,46,47,47,48,48,49,49,50,50,52,52],"right_children":[2,4,6,8,10,12,14,-1,16,18,20,22,24,26,28,-1,-1,30,32,34,36,38,40,42,44,46,48,50,52,-1,-1,-1,-1,54,-1,56,58,60,62,64,66,68,70,72,74,76,78,80,82,84,86,-1,88,-1,-1,-1,-1,-1,-1,-1,-1,-1,-1,-1,-1,-1,-1,-1,-1,-1,-1,-1,-1,-1,-1,-1,-1,-1,-1,-1,-1,-1,-1,-1,-1,-1,-1,-1,-1],"split_conditions":[-3.4885392E-1,-1.1951227E0,5.3885156E-1,-1.7716695E0,-7.6873106E-1,1.8652076E-1,1.0203106E0,-3.397345E0,-1.4308149E0,-8.2028115E-1,-4.7450083E-1,-2.9017068E-2,1.9077949E-1,7.684857E-1,1.1898746E0,-2.7389657E0,-2.2891E0,-8.872703E-1,-7.0689636E-1,-1.1095314E-1,1.03909604E-1,-2.5481707E-1,-1.1243902E-2,6.243964E-1,7.3129714E-1,7.045695E-1,-1.0040758E0,4.6679E-1,-1.0040758E0,-1.8461115E0,-1.4163353E0,-8.000083E-1,-1.3745579E0,3.7677747E-1,-3.9714354E-1,2.2297053E-1,1.17522866E-1,3.6318073E-1,-9.995278E-1,5.9397584E-1,4.0668154E-1,3.1104472E-2,6.9380397E-1,1.1496471E0,7.9812205E-1,-1.0654122E-2,2.4464338E-1,7.046433E-1,1.0524492E0,7.060533E-1,1.3783106E0,1.5046926E0,-3.1745606E-3,-1.1222521E0,-7.5326365E-1,-6.9376886E-1,-9.334782E-2,8.451317E-2,-2.6674935E-1,-4.0697035E-1,-7.2520864E-1,2.6846823E-1,-2.1474703E-1,-1.4609557E-1,3.208704E-1,2.5610083E-1,6.9457114E-1,1.4310998E-2,3.818303E-1,6.071872E-1,1.1534538E0,7.2897E-1,3.282119E-1,1.2131101E0,8.6133856E-1,8.0539817E-1,1.2361996E0,2.5983813E-1,9.028191E-1,8.5262585E-1,1.4103178E0,1.4821336E0,1.8546565E0,1.4581786E0,7.3776835E-1,1.9252518E0,7.0060414E-1,2.653134E0,2.2042692E0],"split_indices":[15,10,15,10,15,10,15,0,10,10,10,15,15,10,10,0,0,15,7,17,17,10,10,14,10,6,6,10,6,0,0,0,0,14,0,10,17,6,7,19,15,15,25,11,4,11,10,20,10,7,11,0,6,0,0,0,0,0,0,0,0,0,0,0,0,0,0,0,0,0,0,0,0,0,0,0,0,0,0,0,0,0,0,0,0,0,0,0,0],"split_type":[0,0,0,0,0,0,0,0,0,0,0,0,0,0,0,0,0,0,0,0,0,0,0,0,0,0,0,0,0,0,0,0,0,0,0,0,0,0,0,0,0,0,0,0,0,0,0,0,0,0,0,0,0,0,0,0,0,0,0,0,0,0,0,0,0,0,0,0,0,0,0,0,0,0,0,0,0,0,0,0,0,0,0,0,0,0,0,0,0],"sum_hessian":[2.694E3,8.93E2,1.801E3,5.35E2,3.58E2,7.98E2,1.003E3,9.9E1,4.36E2,1.76E2,1.82E2,3.47E2,4.51E2,6.05E2,3.98E2,2.78E2,1.58E2,1.22E2,5.4E1,9.6E1,8.6E1,1.68E2,1.79E2,1.25E2,3.26E2,3.19E2,2.86E2,2.29E2,1.69E2,9.8E1,2.4E1,1E1,4.4E1,9.3E1,3E0,7.8E1,8E0,6.5E1,1.03E2,7.8E1,1.01E2,1.06E2,1.9E1,2.65E2,6.1E1,2.23E2,9.6E1,6.7E1,2.19E2,1.2E1,2.17E2,1.2E1,1.57E2,8E1,1.3E1,7.5E1,3E0,3E0,5E0,4.6E1,1.9E1,1.1E1,9.2E1,4.8E1,3E1,8.7E1,1.4E1,3.9E1,6.7E1,1.2E1,7E0,2.46E2,1.9E1,3.5E1,2.6E1,1.8E1,2.05E2,8E0,8.8E1,2.5E1,4.2E1,1.75E2,4.4E1,6E0,6E0,2.14E2,3E0,9.8E1,5.9E1],"tree_param":{"num_deleted":"0","num_feature":"26","num_nodes":"89","size_leaf_vector":"1"}},{"base_weights":[1.9904499E-1,-3.8842987E1,2.1484426E1,-5.08532E1,-1.8671162E1,1.09230995E1,3.4101357E1,-5.8754616E1,-4.4759354E1,-2.7907892E1,-1.4354419E1,4.022623E0,1.6980219E1,2.812368E1,4.2280663E1,-3.2905023E0,-2.7576325E0,-2.3681219E0,-1.8681717E0,-3.1153297E1,-1.2341086E0,-1.8694935E1,-1.1460836E1,-3.927395E0,7.3628144E0,1.14073305E1,1.9961546E1,2.5474003E1,3.3877365E1,4.797117E1,3.7828133E1,-1.593004E0,-7.3409504E-1,-1.998305E1,-1.4233365E1,-1.4584598E1,-8.868823E0,-5.1944203E0,6.295029E0,6.0775447E0,1.369508E1,3.6874757E0,1.3009562E1,1.8231081E1,2.3396471E1,2.2278763E1,2.7365002E1,2.637245E1,3.5569134E1,2.488362E0,1.8255166E0,2.2710896E1,3.9079933E1,-1.0221642E0,-5.748292E-1,-3.8127545E-1,-7.956726E-1,-2.0333126E-1,-7.5096583E-1,-6.0074437E-1,-3.2977936E-1,-6.5460724E-1,-1.9131134E-1,6.264476E-1,-2.5636742E-1,1.0907216E-1,4.0687832E-1,3.5334614E-1,8.0942357E-1,-1.07391536E-1,3.4255522E-1,4.8251706E-1,7.575484E-1,1.0377398E0,7.5287724E-1,1.0661917E0,1.4202553E0,8.1595147E-1,1.1922994E0,1.7401955E0,1.3087128E0,1.3888832E0,5.134568E-1,1.4702009E0,1.8580812E0,6.1929834E-1,1.2463669E0,1.7709891E0,2.107104E0],"categories":[],"categories_nodes":[],"categories_segments":[],"categories_sizes":[],"default_left":[0,0,0,0,0,0,0,0,0,0,0,0,0,0,0,0,0,0,0,0,0,0,0,0,0,0,0,0,0,0,0,0,0,0,0,0,0,0,0,0,0,0,0,0,0,0,0,0,0,0,0,0,0,0,0,0,0,0,0,0,0,0,0,0,0,0,0,0,0,0,0,0,0,0,0,0,0,0,0,0,0,0,0,0,0,0,0,0,0],"id":4,"left_children":[1,3,5,7,9,11,13,15,17,19,21,23,25,27,29,-1,-1,-1,-1,31,-1,33,35,37,39,41,43,45,47,49,51,-1,-1,53,55,57,59,61,63,65,67,69,71,73,75,77,79,81,83,-1,-1,85,87,-1,-1,-1,-1,-1,-1,-1,-1,-1,-1,-1,-1,-1,-1,-1,-1,-1,-1,-1,-1,-1,-1,-1,-1,-1,-1,-1,-1,-1,-1,-1,-1,-1,-1,-1,-1],"loss_changes":[2.2304718E6,2.2847138E5,2.3108088E5,2.591275E4,1.374993E4,3.951136E4,3.7478438E4,2.8386875E3,4.748375E3,3.9798438E2,2.8472812E3,1.1819495E4,8.142922E3,6.1439688E3,6.588625E3,0E0,0E0,0E0,0E0,1.3294922E2,0E0,2.638672E2,1.0747324E3,1.742262E3,2.4621914E3,2.152039E3,1.5129844E3,1.3128281E3,8.586875E2,1.097375E3,2.7207188E3,0E0,0E0,4.299414E1,1.538418E2,2.3879004E2,5.1963965E2,1.2232771E3,1.1330739E3,2.084044E3,7.426553E2,6.059291E2,9.087461E2,1.4619219E3,4.8971875E2,7.6503125E2,8.190781E2,3.8980078E2,1.00625E1,0E0,0E0,7.655762E1,4.61E2,0E0,0E0,0E0,0E0,0E0,0E0,0E0,0E0,0E0,0E0,0E0,0E0,0E0,0E0,0E0,0E0,0E0,0E0,0E0,0E0,0E0,0E0,0E0,0E0,0E0,0E0,0E0,0E0,0E0,0E0,0E0,0E0,0E0,0E0,0E0,0E0],"parents":[2147483647,0,0,1,1,2,2,3,3,4,4,5,5,6,6,7,7,8,8,9,9,10,10,11,11,12,12,13,13,14,14,19,19,21,21,22,22,23,23,24,24,25,25,26,26,27,27,28,28,29,29,30,30,33,33,34,34,35,35,36,36,37,37,38,38,39,39,40,40,41,41,42,42,43,43,44,44,45,45,46,46,47,47,48,48,51,51,52,52],"right_children":[2,4,6,8,10,12,14,16,18,20,22,24,26,28,30,-1,-1,-1,-1,32,-1,34,36,38,40,42,44,46,48,50,52,-1,-1,54,56,58,60,62,64,66,68,70,72,74,76,78,80,82,84,-1,-1,86,88,-1,-1,-1,-1,-1,-1,-1,-1,-1,-1,-1,-1,-1,-1,-1,-1,-1,-1,-1,-1,-1,-1,-1,-1,-1,-1,-1,-1,-1,-1,-1,-1,-1,-1,-1,-1],"split_conditions":[-2.512477E-1,-9.714984E-1,6.9536227E-1,-1.5734123E0,-7.412261E-1,3.1418687E-1,1.0310227E0,-1.8529427E0,-1.245118E0,-9.3692535E-1,-4.7450083E-1,-1.1243902E-2,4.0768224E-1,1.0203106E0,-7.0689636E-1,-3.2905023E0,-2.7576325E0,-2.3681219E0,-1.8681717E0,-4.36284E-1,-1.2341086E0,-3.9899576E-1,-4.627684E-1,1.3124751E0,7.909947E-1,2.4709652E-1,7.684857E-1,6.662786E-1,9.005025E-1,1.311682E0,7.995681E-1,-1.593004E0,-7.3409504E-1,-3.2697758E-1,-6.10171E-1,-1.0983019E0,-2.9372966E-1,-5.143986E-1,1.6462616E0,6.274739E-2,3.857631E-1,-3.2424178E-2,-7.014435E-2,6.801577E-1,9.308584E-1,-7.014435E-2,-9.995278E-1,1.0429022E0,-7.064098E-2,2.488362E0,1.8255166E0,6.569777E-1,1.1195619E0,-1.0221642E0,-5.748292E-1,-3.8127545E-1,-7.956726E-1,-2.0333126E-1,-7.5096583E-1,-6.0074437E-1,-3.2977936E-1,-6.5460724E-1,-1.9131134E-1,6.264476E-1,-2.5636742E-1,1.0907216E-1,4.0687832E-1,3.5334614E-1,8.0942357E-1,-1.07391536E-1,3.4255522E-1,4.8251706E-1,7.575484E-1,1.0377398E0,7.5287724E-1,1.0661917E0,1.4202553E0,8.1595147E-1,1.1922994E0,1.7401955E0,1.3087128E0,1.3888832E0,5.134568E-1,1.4702009E0,1.8580812E0,6.1929834E-1,1.2463669E0,1.7709891E0,2.107104E0],"split_indices":[15,10,15,10,15,15,10,10,10,15,10,10,10,15,7,0,0,0,0,24,0,15,15,21,20,16,10,10,16,4,20,0,0,16,24,19,10,10,21,15,10,10,0,12,20,0,7,21,19,0,0,16,20,0,0,0,0,0,0,0,0,0,0,0,0,0,0,0,0,0,0,0,0,0,0,0,0,0,0,0,0,0,0,0,0,0,0,0,0],"split_type":[0,0,0,0,0,0,0,0,0,0,0,0,0,0,0,0,0,0,0,0,0,0,0,0,0,0,0,0,0,0,0,0,0,0,0,0,0,0,0,0,0,0,0,0,0,0,0,0,0,0,0,0,0,0,0,0,0,0,0,0,0,0,0,0,0,0,0,0,0,0,0,0,0,0,0,0,0,0,0,0,0,0,0,0,0,0,0,0,0],"sum_hessian":[2.682E3,9.46E2,1.736E3,5.92E2,3.54E2,9.46E2,7.9E2,2.54E2,3.38E2,1.11E2,2.43E2,4.43E2,5.03E2,4.59E2,3.31E2,8E1,1.74E2,2.46E2,9.2E1,5.1E1,6E1,9.5E1,1.48E2,1.31E2,3.12E2,1.77E2,3.26E2,3.18E2,1.41E2,1.41E2,1.9E2,4.8E1,3E0,7.1E1,2.4E1,6.5E1,8.3E1,1.17E2,1.4E1,2.61E2,5.1E1,3.1E1,1.46E2,2.21E2,1.05E2,1.23E2,1.95E2,2.9E1,1.12E2,1.19E2,2.2E1,1.6E1,1.74E2,6.6E1,5E0,6E0,1.8E1,3E0,6.2E1,3.3E1,5E1,1.6E1,1.01E2,9E0,5E0,9.1E1,1.7E2,1.5E1,3.6E1,1.1E1,2E1,5.9E1,8.7E1,1.2E2,1.01E2,7.8E1,2.7E1,2.8E1,9.5E1,2.3E1,1.72E2,2.6E1,3E0,2.7E1,8.5E1,4E0,1.2E1,8.5E1,8.9E1],"tree_param":{"num_deleted":"0","num_feature":"26","num_nodes":"89","size_leaf_vector":"1"}},{"base_weights":[-3.1218305E-1,-3.681923E1,2.0056135E1,-4.9040672E1,-1.9341923E1,1.0236933E1,3.2037163E1,-5.568608E1,-4.3308586E1,-2.760647E1,-1.3831572E1,3.671477E0,1.6129208E1,2.5977657E1,3.919787E1,-3.1832442E0,-2.623492E0,-2.3002357E0,-1.9296877E0,-3.1337782E1,-2.3429981E1,-1.7596214E1,-1.0225263E1,-2.95099E0,7.4761925E0,1.21775055E1,1.9283363E1,2.317259E1,3.0146912E1,3.5096363E1,4.5651466E1,-1.6103228E0,-7.547492E-1,-1.2152425E0,-8.2557815E-1,-1.872222E1,-1.187837E1,-1.42383375E1,-7.485276E0,-6.989855E0,-8.303871E-1,5.9275393E0,1.3024065E1,5.4649177E0,1.3378426E1,1.1121966E1,2.029939E1,2.0248009E1,2.4855001E1,2.4356987E1,3.2602642E1,3.1030918E1,1.8672699E0,1.2088246E0,2.3406534E0,-9.5546657E-1,-3.9174452E-1,-7.493179E-2,-6.716569E-1,-1.9570605E-1,-7.405962E-1,-2.5995365E-1,-5.3533846E-1,-2.0086586E-1,-7.519236E-1,-2.2660676E-1,1.4759727E-1,5.8172256E-2,3.9363372E-1,4.4982168E-1,8.143925E-1,3.6402214E-1,-1.54116E-1,4.0400878E-1,7.4312556E-1,3.516403E-1,7.0666665E-1,8.7528497E-1,1.1348363E0,1.088425E0,6.743352E-1,1.261604E0,1.9079731E-1,1.2802216E0,6.9855636E-1,1.3337177E0,1.7189993E0,1.5731287E0,7.199628E-1],"categories":[],"categories_nodes":[],"categories_segments":[],"categories_sizes":[],"default_left":[0,0,0,0,0,0,0,0,0,0,0,0,0,0,0,0,0,0,0,0,0,0,0,0,0,0,0,0,0,0,0,0,0,0,0,0,0,0,0,0,0,0,0,0,0,0,0,0,0,0,0,0,0,0,0,0,0,0,0,0,0,0,0,0,0,0,0,0,0,0,0,0,0,0,0,0,0,0,0,0,0,0,0,0,0,0,0,0,0],"id":5,"left_children":[1,3,5,7,9,11,13,15,17,19,21,23,25,27,29,-1,-1,-1,-1,31,33,35,37,39,41,43,45,47,49,51,53,-1,-1,-1,-1,55,57,59,61,63,65,67,69,71,73,75,77,79,81,83,85,87,-1,-1,-1,-1,-1,-1,-1,-1,-1,-1,-1,-1,-1,-1,-1,-1,-1,-1,-1,-1,-1,-1,-1,-1,-1,-1,-1,-1,-1,-1,-1,-1,-1,-1,-1,-1,-1],"loss_changes":[2.0099124E6,2.058075E5,2.0378031E5,1.925275E4,1.783025E4,3.6883414E4,3.2863062E4,3.3199375E3,2.1566875E3,1.7381094E3,3.1028008E3,1.1436576E4,6.031578E3,4.2781875E3,7.812875E3,0E0,0E0,0E0,0E0,6.519922E2,7.276953E1,5.2783203E2,1.2767168E3,1.4151752E3,2.3953223E3,1.7468516E3,2.0763203E3,7.6659375E2,1.5889062E3,8.64125E2,2.22875E3,0E0,0E0,0E0,0E0,2.521914E2,3.3341284E2,2.3624219E2,5.0984766E2,1.301395E3,1.5536731E3,2.0935015E3,6.6594727E2,5.814984E2,1.379457E3,3.0484692E2,1.2462266E3,7.309414E2,1.1701484E3,3.379336E2,2.8853906E2,1.5260156E2,0E0,0E0,0E0,0E0,0E0,0E0,0E0,0E0,0E0,0E0,0E0,0E0,0E0,0E0,0E0,0E0,0E0,0E0,0E0,0E0,0E0,0E0,0E0,0E0,0E0,0E0,0E0,0E0,0E0,0E0,0E0,0E0,0E0,0E0,0E0,0E0,0E0],"parents":[2147483647,0,0,1,1,2,2,3,3,4,4,5,5,6,6,7,7,8,8,9,9,10,10,11,11,12,12,13,13,14,14,19,19,20,20,21,21,22,22,23,23,24,24,25,25,26,26,27,27,28,28,29,29,30,30,35,35,36,36,37,37,38,38,39,39,40,40,41,41,42,42,43,43,44,44,45,45,46,46,47,47,48,48,49,49,50,50,51,51],"right_children":[2,4,6,8,10,12,14,16,18,20,22,24,26,28,30,-1,-1,-1,-1,32,34,36,38,40,42,44,46,48,50,52,54,-1,-1,-1,-1,56,58,60,62,64,66,68,70,72,74,76,78,80,82,84,86,88,-1,-1,-1,-1,-1,-1,-1,-1,-1,-1,-1,-1,-1,-1,-1,-1,-1,-1,-1,-1,-1,-1,-1,-1,-1,-1,-1,-1,-1,-1,-1,-1,-1,-1,-1,-1,-1],"split_conditions":[-2.512477E-1,-1.1047372E0,6.865996E-1,-1.5734123E0,-7.412261E-1,3.1418687E-1,9.928489E-1,-1.8923478E0,-1.3347648E0,-9.3692535E-1,-4.52828E-1,6.362591E-2,4.6679E-1,9.436375E-1,1.2790524E0,-3.1832442E0,-2.623492E0,-2.3002357E0,-1.9296877E0,-4.36284E-1,-3.4094214E-1,-3.6248472E-1,-4.627684E-1,-2.5481707E-1,7.533289E-1,2.4709652E-1,-1.2290232E0,6.608604E-1,9.478612E-1,9.9597E-1,-1.0040758E0,-1.6103228E0,-7.547492E-1,-1.2152425E0,-8.2557815E-1,-3.1996187E-2,-9.1447806E-1,-1.0983019E0,2.999835E-1,3.6318073E-1,-3.589943E-1,3.1104472E-2,4.6679E-1,1.2507422E0,-3.589943E-1,7.60051E-1,6.736671E-1,7.045695E-1,1.4419724E0,1.1695693E0,-1.14698395E-1,1.4034183E0,1.8672699E0,1.2088246E0,2.3406534E0,-9.5546657E-1,-3.9174452E-1,-7.493179E-2,-6.716569E-1,-1.9570605E-1,-7.405962E-1,-2.5995365E-1,-5.3533846E-1,-2.0086586E-1,-7.519236E-1,-2.2660676E-1,1.4759727E-1,5.8172256E-2,3.9363372E-1,4.4982168E-1,8.143925E-1,3.6402214E-1,-1.54116E-1,4.0400878E-1,7.4312556E-1,3.516403E-1,7.0666665E-1,8.7528497E-1,1.1348363E0,1.088425E0,6.743352E-1,1.261604E0,1.9079731E-1,1.2802216E0,6.9855636E-1,1.3337177E0,1.7189993E0,1.5731287E0,7.199628E-1],"split_indices":[15,10,15,10,15,15,10,10,10,15,10,10,10,15,15,0,0,0,0,24,24,15,15,10,20,16,6,10,16,15,6,0,0,0,0,17,11,19,19,6,0,15,10,23,0,20,10,6,19,21,19,16,0,0,0,0,0,0,0,0,0,0,0,0,0,0,0,0,0,0,0,0,0,0,0,0,0,0,0,0,0,0,0,0,0,0,0,0,0],"split_type":[0,0,0,0,0,0,0,0,0,0,0,0,0,0,0,0,0,0,0,0,0,0,0,0,0,0,0,0,0,0,0,0,0,0,0,0,0,0,0,0,0,0,0,0,0,0,0,0,0,0,0,0,0,0,0,0,0,0,0,0,0,0,0,0,0,0,0,0,0,0,0,0,0,0,0,0,0,0,0,0,0,0,0,0,0,0,0,0,0],"sum_hessian":[2.701E3,9.67E2,1.734E3,5.68E2,3.99E2,9.54E2,7.8E2,2.59E2,3.09E2,1.58E2,2.41E2,4.52E2,5.02E2,4.25E2,3.55E2,6.9E1,1.9E2,1.91E2,1.18E2,8E1,7.8E1,1.16E2,1.25E2,1.65E2,2.87E2,2.25E2,2.77E2,2.58E2,1.67E2,2.21E2,1.34E2,7.5E1,5E0,6.7E1,1.1E1,9.5E1,2.1E1,4.9E1,7.6E1,5.6E1,1.09E2,2.26E2,6.1E1,3.5E1,1.9E2,3.2E1,2.45E2,9.9E1,1.59E2,5.3E1,1.14E2,8.4E1,1.37E2,8E0,1.26E2,9.1E1,4E0,3E0,1.8E1,3E0,4.6E1,4.6E1,3E1,4.2E1,1.4E1,5.5E1,5.4E1,6.6E1,1.6E2,2.9E1,3.2E1,2.9E1,6E0,4.3E1,1.47E2,1.5E1,1.7E1,1.17E2,1.28E2,7.9E1,2E1,1.56E2,3E0,4.6E1,7E0,3E1,8.4E1,8.1E1,3E0],"tree_param":{"num_deleted":"0","num_feature":"26","num_nodes":"89","size_leaf_vector":"1"}},{"base_weights":[-4.9769036E-2,-3.6238815E1,1.817636E1,-4.6671276E1,-1.9080673E1,8.661733E0,2.9411276E1,-5.329421E1,-4.1371624E1,-2.6615826E1,-1.524579E1,2.7065427E0,1.4798309E1,3.8689438E1,2.5938845E1,-3.0843067E0,-2.5119264E0,-2.193588E0,-3.6703537E1,-2.2658182E1,-2.905241E1,-8.1569605E0,-1.7080082E1,-3.0095963E0,6.3011827E0,2.07827E1,1.3011249E1,3.2966034E1,2.2348764E0,1.9621061E1,3.0049404E1,-1.8571131E0,-9.7576994E-1,-6.6688615E-1,-1.1714725E0,-1.4781387E0,-6.7992586E-1,-1.0252138E1,-2.1795783E0,-1.9166943E1,-1.2658932E1,4.8325467E0,-4.86282E0,4.182538E0,1.3163761E1,1.7391249E1,2.4657612E1,1.0277685E1,1.9811407E1,1.7142231E0,2.5301577E1,1.440119E1,2.215621E1,2.3599934E1,3.332381E1,-5.830506E-1,3.975409E-2,-2.686052E-1,1.4779033E-1,-1.0048615E0,-5.623216E-1,-8.805072E-1,-4.5980445E-1,-6.565935E-2,5.06354E-1,-3.5774097E-1,1.3187353E-1,5.077302E-1,5.8452647E-2,4.6922112E-1,1.0319356E0,4.6747136E-1,9.048365E-1,8.162753E-1,1.3489358E0,4.0173888E-1,6.819668E-1,7.7520764E-1,1.1582407E0,5.814477E-1,1.346437E0,4.7211275E-1,9.748454E-1,1.1502804E0,7.737097E-1,9.6409434E-1,1.3305548E0,1.5138844E0,1.9304829E0],"categories":[],"categories_nodes":[],"categories_segments":[],"categories_sizes":[],"default_left":[0,0,0,0,0,0,0,0,0,0,0,0,0,0,0,0,0,0,0,0,0,0,0,0,0,0,0,0,0,0,0,0,0,0,0,0,0,0,0,0,0,0,0,0,0,0,0,0,0,0,0,0,0,0,0,0,0,0,0,0,0,0,0,0,0,0,0,0,0,0,0,0,0,0,0,0,0,0,0,0,0,0,0,0,0,0,0,0,0],"id":6,"left_children":[1,3,5,7,9,11,13,15,17,19,21,23,25,27,29,-1,-1,-1,31,33,35,37,39,41,43,45,47,49,-1,51,53,-1,-1,-1,-1,-1,-1,55,57,59,61,63,65,67,69,71,73,75,77,-1,79,81,83,85,87,-1,-1,-1,-1,-1,-1,-1,-1,-1,-1,-1,-1,-1,-1,-1,-1,-1,-1,-1,-1,-1,-1,-1,-1,-1,-1,-1,-1,-1,-1,-1,-1,-1,-1],"loss_changes":[1.772309E6,1.6020438E5,1.9076456E5,1.7406125E4,9.472625E3,3.536979E4,2.5376375E4,3.172375E3,2.0580625E3,4.35875E2,2.8358398E3,1.0149192E4,4.8274766E3,6.1181875E3,1.4961219E4,0E0,0E0,0E0,1.4423438E2,2.8878906E1,1.22109375E2,5.90072E2,1.4241484E3,2.7993528E3,4.3486357E3,9.862578E2,6.6711875E3,3.08875E2,0E0,2.8399922E3,6.8315312E3,0E0,0E0,0E0,0E0,0E0,0E0,5.706665E2,2.4564838E2,6.6241016E2,8.812363E2,1.2181154E3,2.6838752E3,4.1802354E3,1.8090908E3,1.7413672E2,4.8353125E2,1.8938477E3,1.1535938E3,0E0,1.501914E2,1.8598262E3,5.4259375E2,1.1075859E3,2.640125E3,0E0,0E0,0E0,0E0,0E0,0E0,0E0,0E0,0E0,0E0,0E0,0E0,0E0,0E0,0E0,0E0,0E0,0E0,0E0,0E0,0E0,0E0,0E0,0E0,0E0,0E0,0E0,0E0,0E0,0E0,0E0,0E0,0E0,0E0],"parents":[2147483647,0,0,1,1,2,2,3,3,4,4,5,5,6,6,7,7,8,8,9,9,10,10,11,11,12,12,13,13,14,14,18,18,19,19,20,20,21,21,22,22,23,23,24,24,25,25,26,26,27,27,29,29,30,30,37,37,38,38,39,39,40,40,41,41,42,42,43,43,44,44,45,45,46,46,47,47,48,48,50,50,51,51,52,52,53,53,54,54],"right_children":[2,4,6,8,10,12,14,16,18,20,22,24,26,28,30,-1,-1,-1,32,34,36,38,40,42,44,46,48,50,-1,52,54,-1,-1,-1,-1,-1,-1,56,58,60,62,64,66,68,70,72,74,76,78,-1,80,82,84,86,88,-1,-1,-1,-1,-1,-1,-1,-1,-1,-1,-1,-1,-1,-1,-1,-1,-1,-1,-1,-1,-1,-1,-1,-1,-1,-1,-1,-1,-1,-1,-1,-1,-1,-1],"split_conditions":[-3.1195456E-1,-1.1047372E0,6.608604E-1,-1.5859727E0,-7.9540664E-1,3.0079573E-1,-7.0689636E-1,-1.8923478E0,-1.3347648E0,-7.0689636E-1,-9.995278E-1,3.3136425E-4,-9.995278E-1,1.1113107E0,8.366168E-1,-3.0843067E0,-2.5119264E0,-2.193588E0,-7.283148E-1,-1.3161625E0,-2.6569062E-1,2.187056E-1,1.0852554E0,-9.995278E-1,1.0852554E0,7.428063E-2,1.0852554E0,-9.995278E-1,2.2348764E0,7.060533E-1,9.9868476E-1,-1.8571131E0,-9.7576994E-1,-6.6688615E-1,-1.1714725E0,-1.4781387E0,-6.7992586E-1,-4.4861892E-1,-5.584831E-1,3.6136246E-1,-6.443821E-1,7.428063E-2,1.0852554E0,-7.0689636E-1,6.1441296E-1,6.425575E-1,-5.374548E-1,6.4910936E-1,2.79713E-1,1.7142231E0,-3.863263E-1,1.1558877E0,1.2226741E0,9.300469E-1,1.1558877E0,-5.830506E-1,3.975409E-2,-2.686052E-1,1.4779033E-1,-1.0048615E0,-5.623216E-1,-8.805072E-1,-4.5980445E-1,-6.565935E-2,5.06354E-1,-3.5774097E-1,1.3187353E-1,5.077302E-1,5.8452647E-2,4.6922112E-1,1.0319356E0,4.6747136E-1,9.048365E-1,8.162753E-1,1.3489358E0,4.0173888E-1,6.819668E-1,7.7520764E-1,1.1582407E0,5.814477E-1,1.346437E0,4.7211275E-1,9.748454E-1,1.1502804E0,7.737097E-1,9.6409434E-1,1.3305548E0,1.5138844E0,1.9304829E0],"split_indices":[10,10,10,10,10,10,7,10,10,7,7,10,7,10,20,0,0,0,17,12,17,0,0,7,0,0,0,7,0,7,7,0,0,0,0,0,0,18,10,14,20,0,0,7,20,22,21,14,12,0,21,10,6,10,10,0,0,0,0,0,0,0,0,0,0,0,0,0,0,0,0,0,0,0,0,0,0,0,0,0,0,0,0,0,0,0,0,0,0],"split_type":[0,0,0,0,0,0,0,0,0,0,0,0,0,0,0,0,0,0,0,0,0,0,0,0,0,0,0,0,0,0,0,0,0,0,0,0,0,0,0,0,0,0,0,0,0,0,0,0,0,0,0,0,0,0,0,0,0,0,0,0,0,0,0,0,0,0,0,0,0,0,0,0,0,0,0,0,0,0,0,0,0,0,0,0,0,0,0,0,0],"sum_hessian":[2.685E3,8.99E2,1.786E3,5.58E2,3.41E2,9.68E2,8.18E2,2.44E2,3.14E2,1.13E2,2.28E2,4.92E2,4.76E2,2.2E2,5.98E2,6E1,1.84E2,1.99E2,1.15E2,4.7E1,6.6E1,4.8E1,1.8E2,1.9E2,3.02E2,1.07E2,3.69E2,1.16E2,1.04E2,2.38E2,3.6E2,1.11E2,4E0,5E0,4.2E1,6.3E1,3E0,3.5E1,1.3E1,1.2E2,6E1,3.6E1,1.54E2,2.32E2,7E1,6E1,4.7E1,2.65E2,1.04E2,9.6E1,2E1,8E1,1.58E2,1.24E2,2.36E2,3.1E1,4E0,8E0,5E0,1.06E2,1.4E1,2.3E1,3.7E1,1.7E1,1.9E1,1.18E2,3.6E1,7.7E1,1.55E2,4.8E1,2.2E1,6E0,5.4E1,1.2E1,3.5E1,1.61E2,1.04E2,4.8E1,5.6E1,3E0,1.7E1,4.2E1,3.8E1,1.38E2,2E1,5.4E1,7E1,1.54E2,8.2E1],"tree_param":{"num_deleted":"0","num_feature":"26","num_nodes":"89","size_leaf_vector":"1"}},{"base_weights":[-1.077693E-2,-3.4715107E1,1.7206974E1,-4.4589657E1,-1.8329594E1,7.3825088E0,2.7490267E1,-5.3872604E1,-4.1021767E1,-2.5916317E1,-1.4370027E1,5.3536254E-1,1.2917828E1,2.2076609E1,3.4532322E1,-3.102545E0,-2.5350442E0,-2.1763906E0,-1.7815412E0,-2.7443403E1,-1.5492912E1,-1.6807005E1,-9.560503E0,-5.0382433E0,4.197552E0,8.646421E0,1.600525E1,1.14896965E1,2.3274231E1,2.9275208E1,3.8743355E1,-1.4666351E0,-1.1818019E0,-3.616494E-1,-8.3695555E-1,-1.0599754E0,-1.515095E1,-1.1508129E1,-4.075267E0,2.2559097E0,-7.2392964E0,1.1283103E1,2.6780243E0,4.1957235E0,1.1887769E1,1.8493998E1,1.2038761E1,1.7327251E1,5.655192E0,2.201191E1,3.0410875E1,3.3502144E1,2.6314398E1,4.2713085E1,3.432379E1,-4.5769525E-1,-8.2646954E-1,-4.7382298E-1,-7.689028E-1,-4.261342E-1,-7.124802E-2,-6.061608E-3,7.683531E-1,-4.832138E-1,-5.383982E-2,3.509075E-1,7.8076416E-1,6.609564E-2,5.672551E-1,-1.0173974E-3,3.5554168E-1,6.554363E-1,-3.4682047E-2,8.476035E-1,1.2197387E0,4.776543E-1,7.480109E-1,5.3583497E-1,1.111041E0,1.4863895E-1,4.4878393E-1,9.508753E-1,1.2215236E0,1.6845688E0,1.0345056E0,1.2048523E0,1.7746204E0,8.213782E-1,1.3873367E0,1.4886125E0,2.2023659E0,9.791116E-1,1.7756588E0],"categories":[],"categories_nodes":[],"categories_segments":[],"categories_sizes":[],"default_left":[0,0,0,0,0,0,0,0,0,0,0,0,0,0,0,0,0,0,0,0,0,0,0,0,0,0,0,0,0,0,0,0,0,0,0,0,0,0,0,0,0,0,0,0,0,0,0,0,0,0,0,0,0,0,0,0,0,0,0,0,0,0,0,0,0,0,0,0,0,0,0,0,0,0,0,0,0,0,0,0,0,0,0,0,0,0,0,0,0,0,0,0,0],"id":7,"left_children":[1,3,5,7,9,11,13,15,17,19,21,23,25,27,29,-1,-1,-1,-1,31,33,35,37,39,41,43,45,47,49,51,53,-1,-1,-1,-1,-1,55,57,59,61,63,65,67,69,71,73,75,77,79,81,83,85,87,89,91,-1,-1,-1,-1,-1,-1,-1,-1,-1,-1,-1,-1,-1,-1,-1,-1,-1,-1,-1,-1,-1,-1,-1,-1,-1,-1,-1,-1,-1,-1,-1,-1,-1,-1,-1,-1,-1,-1],"loss_changes":[1.6163214E6,1.4431062E5,1.8245194E5,1.6295E4,9.807156E3,3.508819E4,3.2894875E4,7.8546875E2,3.9531875E3,1.4010312E3,2.473836E3,8.491879E3,6.6112188E3,6.0940312E3,7.3156562E3,0E0,0E0,0E0,0E0,1.353125E1,5.1519043E1,7.517539E2,7.8483154E2,2.6658745E3,2.6708276E3,3.0790127E3,2.696289E3,1.704852E3,3.3792969E3,1.2900625E3,2.1930312E3,0E0,0E0,0E0,0E0,0E0,7.637129E2,2.9994287E2,2.461752E2,1.2189032E3,1.8863994E3,7.0111426E2,2.4284688E3,1.1438529E3,1.9305039E3,1.2200625E3,7.042617E2,5.996509E2,2.2151611E2,2.3265E3,1.3702695E3,4.1164844E2,1.0550312E3,5.1142188E2,1.1225391E3,0E0,0E0,0E0,0E0,0E0,0E0,0E0,0E0,0E0,0E0,0E0,0E0,0E0,0E0,0E0,0E0,0E0,0E0,0E0,0E0,0E0,0E0,0E0,0E0,0E0,0E0,0E0,0E0,0E0,0E0,0E0,0E0,0E0,0E0,0E0,0E0,0E0,0E0],"parents":[2147483647,0,0,1,1,2,2,3,3,4,4,5,5,6,6,7,7,8,8,9,9,10,10,11,11,12,12,13,13,14,14,19,19,20,20,21,21,22,22,23,23,24,24,25,25,26,26,27,27,28,28,29,29,30,30,36,36,37,37,38,38,39,39,40,40,41,41,42,42,43,43,44,44,45,45,46,46,47,47,48,48,49,49,50,50,51,51,52,52,53,53,54,54],"right_children":[2,4,6,8,10,12,14,16,18,20,22,24,26,28,30,-1,-1,-1,-1,32,34,36,38,40,42,44,46,48,50,52,54,-1,-1,-1,-1,-1,56,58,60,62,64,66,68,70,72,74,76,78,80,82,84,86,88,90,92,-1,-1,-1,-1,-1,-1,-1,-1,-1,-1,-1,-1,-1,-1,-1,-1,-1,-1,-1,-1,-1,-1,-1,-1,-1,-1,-1,-1,-1,-1,-1,-1,-1,-1,-1,-1,-1,-1],"split_conditions":[-3.1195456E-1,-1.1047372E0,6.209627E-1,-1.6923666E0,-8.570586E-1,2.4709652E-1,1.023587E0,-2.0191832E0,-1.3677666E0,-3.7568083E-1,-4.7450083E-1,3.3136425E-4,3.345364E-1,-1.2290232E0,1.1113107E0,-3.102545E0,-2.5350442E0,-2.1763906E0,-1.7815412E0,-1.076303E0,-9.7341573E-1,-7.9540664E-1,-1.7624708E-1,-7.0689636E-1,-7.0689636E-1,-7.014435E-2,7.045695E-1,1.3229331E0,1.0827557E0,-9.995278E-1,-7.0689636E-1,-1.4666351E0,-1.1818019E0,-3.616494E-1,-8.3695555E-1,-1.0599754E0,-9.995278E-1,9.977267E-1,-7.014435E-2,1.907937E0,9.4083047E-1,-5.614949E-1,1.0852554E0,1.2125596E-1,6.9724286E-1,9.1252244E-1,-5.034193E-1,1.1153634E0,1.1746747E0,7.091444E-1,1.364082E0,-8.829423E-2,7.060533E-1,-3.1255615E-1,8.366168E-1,-4.5769525E-1,-8.2646954E-1,-4.7382298E-1,-7.689028E-1,-4.261342E-1,-7.124802E-2,-6.061608E-3,7.683531E-1,-4.832138E-1,-5.383982E-2,3.509075E-1,7.8076416E-1,6.609564E-2,5.672551E-1,-1.0173974E-3,3.5554168E-1,6.554363E-1,-3.4682047E-2,8.476035E-1,1.2197387E0,4.776543E-1,7.480109E-1,5.3583497E-1,1.111041E0,1.4863895E-1,4.4878393E-1,9.508753E-1,1.2215236E0,1.6845688E0,1.0345056E0,1.2048523E0,1.7746204E0,8.213782E-1,1.3873367E0,1.4886125E0,2.2023659E0,9.791116E-1,1.7756588E0],"split_indices":[10,10,10,10,16,16,16,10,10,24,10,10,10,6,10,0,0,0,0,16,19,10,16,7,7,0,6,19,20,7,7,0,0,0,0,0,7,6,0,19,0,19,0,10,11,16,0,18,18,16,6,19,7,23,20,0,0,0,0,0,0,0,0,0,0,0,0,0,0,0,0,0,0,0,0,0,0,0,0,0,0,0,0,0,0,0,0,0,0,0,0,0,0],"split_type":[0,0,0,0,0,0,0,0,0,0,0,0,0,0,0,0,0,0,0,0,0,0,0,0,0,0,0,0,0,0,0,0,0,0,0,0,0,0,0,0,0,0,0,0,0,0,0,0,0,0,0,0,0,0,0,0,0,0,0,0,0,0,0,0,0,0,0,0,0,0,0,0,0,0,0,0,0,0,0,0,0,0,0,0,0,0,0,0,0,0,0,0,0],"sum_hessian":[2.703E3,8.96E2,1.807E3,5.58E2,3.38E2,9.25E2,8.82E2,1.51E2,4.07E2,1.14E2,2.24E2,4.14E2,5.11E2,5.01E2,3.81E2,3.7E1,1.14E2,2.73E2,1.34E2,9.8E1,1.6E1,1.47E2,7.7E1,1.64E2,2.5E2,2.16E2,2.95E2,5.2E1,4.49E2,1.73E2,2.08E2,6.1E1,3.7E1,3E0,1.3E1,3.7E1,1.1E2,5.6E1,2.1E1,3.8E1,1.26E2,4.3E1,2.07E2,9.2E1,1.24E2,1.79E2,1.16E2,2.5E1,2.7E1,3.85E2,6.4E1,6.7E1,1.06E2,1.05E2,1.03E2,2.2E1,8.8E1,3.9E1,1.7E1,7E0,1.4E1,3.3E1,5E0,9E1,3.6E1,2.3E1,2E1,1.8E2,2.7E1,3.8E1,5.4E1,1.13E2,1.1E1,1.45E2,3.4E1,6.5E1,5.1E1,1.2E1,1.3E1,1.6E1,1.1E1,1.76E2,2.09E2,4.6E1,1.8E1,1.4E1,5.3E1,1.5E1,9.1E1,1.2E1,9.3E1,9E0,9.4E1],"tree_param":{"num_deleted":"0","num_feature":"26","num_nodes":"93","size_leaf_vector":"1"}},{"base_weights":[2.233984E-1,-3.2882378E1,1.6757744E1,-4.230854E1,-1.7660797E1,8.980041E0,2.8244999E1,-2.5522869E0,-3.915774E1,-2.4363247E1,-1.2884891E1,8.169338E-1,1.3891195E1,3.7021534E1,2.4841082E1,-2.0694778E0,-1.7254018E0,-2.6380297E1,-1.9722822E1,-6.3155394E0,-1.4662476E1,-4.3998775E0,4.4154987E0,8.239516E0,1.6573547E1,3.1332928E1,4.129949E1,2.1237423E1,3.017034E1,-1.3601841E0,-9.511511E-1,-3.2398233E-1,-1.0238115E0,-1.0192904E1,6.122538E-2,-1.6746593E1,-9.640033E0,-1.286663E1,-2.7228837E0,2.334432E0,1.1499997E1,4.010804E0,1.1092353E1,1.8220312E1,1.0192336E1,1.6313324E0,1.2169948E0,1.9044002E0,2.3345175E0,1.5767865E1,2.4287828E1,2.4530895E1,3.3763E1,-5.489212E-1,-2.1819143E-1,-2.0456243E-1,1.2433665E-1,-9.403825E-1,-6.455197E-1,-1.05967E-1,-5.31891E-1,-8.427784E-1,-2.1949382E-1,-2.0698349E-1,2.2991423E-1,5.765791E-2,4.777805E-1,2.8616187E-1,6.889537E-1,1.1841591E-2,3.283951E-1,4.7018036E-1,9.2310333E-1,8.329453E-1,1.1341813E0,3.3683935E-1,6.003151E-1,7.3265237E-1,1.1732907E0,1.0866456E0,1.3230424E0,1.0338027E0,1.4722106E0,1.3924025E0,1.7790442E0],"categories":[],"categories_nodes":[],"categories_segments":[],"categories_sizes":[],"default_left":[0,0,0,0,0,0,0,0,0,0,0,0,0,0,0,0,0,0,0,0,0,0,0,0,0,0,0,0,0,0,0,0,0,0,0,0,0,0,0,0,0,0,0,0,0,0,0,0,0,0,0,0,0,0,0,0,0,0,0,0,0,0,0,0,0,0,0,0,0,0,0,0,0,0,0,0,0,0,0,0,0,0,0,0,0],"id":8,"left_children":[1,3,5,7,9,11,13,-1,15,17,19,21,23,25,27,-1,-1,29,31,33,35,37,39,41,43,45,47,49,51,-1,-1,-1,-1,53,55,57,59,61,63,65,67,69,71,73,75,-1,-1,-1,-1,77,79,81,83,-1,-1,-1,-1,-1,-1,-1,-1,-1,-1,-1,-1,-1,-1,-1,-1,-1,-1,-1,-1,-1,-1,-1,-1,-1,-1,-1,-1,-1,-1,-1,-1],"loss_changes":[1.4708185E6,1.27662375E5,1.5984797E5,1.318825E4,1.0693883E4,4.288378E4,2.0673438E4,0E0,2.8188125E3,8.0421094E2,2.2758477E3,7.5849614E3,9.987703E3,3.5658125E3,9.4174375E3,0E0,0E0,5.9445312E1,3.3356836E2,1.114264E3,1.5002344E3,2.3061907E3,3.4954233E3,2.5718496E3,4.5612266E3,1.440625E1,1.3489062E2,4.8852656E3,3.4004062E3,0E0,0E0,0E0,0E0,7.876587E1,1.9130682E2,6.3164844E2,3.4387744E2,8.3683936E2,1.4607714E3,1.5745247E3,6.3013574E2,8.5665076E2,1.429081E3,2.1131094E3,5.127256E2,0E0,0E0,0E0,0E0,6.47834E2,5.360469E2,9.9610547E2,3.46875E2,0E0,0E0,0E0,0E0,0E0,0E0,0E0,0E0,0E0,0E0,0E0,0E0,0E0,0E0,0E0,0E0,0E0,0E0,0E0,0E0,0E0,0E0,0E0,0E0,0E0,0E0,0E0,0E0,0E0,0E0,0E0,0E0],"parents":[2147483647,0,0,1,1,2,2,3,3,4,4,5,5,6,6,8,8,9,9,10,10,11,11,12,12,13,13,14,14,17,17,18,18,19,19,20,20,21,21,22,22,23,23,24,24,25,25,26,26,27,27,28,28,33,33,34,34,35,35,36,36,37,37,38,38,39,39,40,40,41,41,42,42,43,43,44,44,49,49,50,50,51,51,52,52],"right_children":[2,4,6,8,10,12,14,-1,16,18,20,22,24,26,28,-1,-1,30,32,34,36,38,40,42,44,46,48,50,52,-1,-1,-1,-1,54,56,58,60,62,64,66,68,70,72,74,76,-1,-1,-1,-1,78,80,82,84,-1,-1,-1,-1,-1,-1,-1,-1,-1,-1,-1,-1,-1,-1,-1,-1,-1,-1,-1,-1,-1,-1,-1,-1,-1,-1,-1,-1,-1,-1,-1,-1],"split_conditions":[-3.1195456E-1,-1.1392167E0,7.482906E-1,-1.7009865E0,-7.3408234E-1,2.3651893E-1,-7.0689636E-1,-2.5522869E0,-1.3827899E0,-8.570586E-1,-9.995278E-1,4.0475372E-2,3.345364E-1,1.1113107E0,9.824091E-1,-2.0694778E0,-1.7254018E0,-8.0795246E-1,-1.3046018E0,-5.111167E-1,1.0852554E0,-5.5944395E-1,6.4910936E-1,-7.014435E-2,1.2226741E0,-9.995278E-1,1.1071233E0,9.9868476E-1,1.0997354E0,-1.3601841E0,-9.511511E-1,-3.2398233E-1,-1.0238115E0,-4.85313E-1,-5.295611E-1,-4.8484468E-1,-2.670948E-1,-2.277411E-1,1.4419724E0,1.0852554E0,1.8652076E-1,1.2125596E-1,6.346013E-1,8.913673E-1,8.135413E-1,1.6313324E0,1.2169948E0,1.9044002E0,2.3345175E0,1.0852554E0,8.366168E-1,1.0852554E0,-2.4792902E-2,-5.489212E-1,-2.1819143E-1,-2.0456243E-1,1.2433665E-1,-9.403825E-1,-6.455197E-1,-1.05967E-1,-5.31891E-1,-8.427784E-1,-2.1949382E-1,-2.0698349E-1,2.2991423E-1,5.765791E-2,4.777805E-1,2.8616187E-1,6.889537E-1,1.1841591E-2,3.283951E-1,4.7018036E-1,9.2310333E-1,8.329453E-1,1.1341813E0,3.3683935E-1,6.003151E-1,7.3265237E-1,1.1732907E0,1.0866456E0,1.3230424E0,1.0338027E0,1.4722106E0,1.3924025E0,1.7790442E0],"split_indices":[10,10,10,10,10,16,7,0,10,16,7,10,10,10,20,0,0,17,12,19,0,16,14,0,6,7,18,7,10,0,0,0,0,18,17,10,25,22,19,0,10,10,20,16,20,0,0,0,0,0,20,0,21,0,0,0,0,0,0,0,0,0,0,0,0,0,0,0,0,0,0,0,0,0,0,0,0,0,0,0,0,0,0,0,0],"split_type":[0,0,0,0,0,0,0,0,0,0,0,0,0,0,0,0,0,0,0,0,0,0,0,0,0,0,0,0,0,0,0,0,0,0,0,0,0,0,0,0,0,0,0,0,0,0,0,0,0,0,0,0,0,0,0,0,0,0,0,0,0,0,0,0,0,0,0,0,0,0,0,0,0,0,0,0,0,0,0,0,0,0,0,0,0],"sum_hessian":[2.685E3,8.94E2,1.791E3,5.51E2,3.43E2,1.069E3,7.22E2,1.42E2,4.09E2,1.41E2,2.02E2,4.02E2,6.67E2,1.99E2,5.23E2,2.71E2,1.38E2,9.5E1,4.6E1,4.4E1,1.58E2,1.64E2,2.38E2,2.16E2,4.51E2,8.9E1,1.1E2,3.15E2,2.08E2,8.3E1,1.2E1,3E0,4.3E1,2.7E1,1.7E1,1.1E2,4.8E1,2.6E1,1.38E2,1.85E2,5.3E1,8.8E1,1.28E2,3.57E2,9.4E1,7.2E1,1.7E1,7.4E1,3.6E1,1.15E2,2E2,8.4E1,1.24E2,2.3E1,4E0,6E0,1.1E1,6.9E1,4.1E1,6E0,4.2E1,1.7E1,9E0,1.16E2,2.2E1,1.6E2,2.5E1,1.6E1,3.7E1,3.6E1,5.2E1,1.06E2,2.2E1,2.68E2,8.9E1,3.4E1,6E1,1.03E2,1.2E1,9.7E1,1.03E2,5E1,3.4E1,3.3E1,9.1E1],"tree_param":{"num_deleted":"0","num_feature":"26","num_nodes":"85","size_leaf_vector":"1"}},{"base_weights":[5.9366826E-2,-3.1697672E1,1.5742317E1,-4.0316128E1,-1.7971409E1,4.341742E0,2.3528345E1,-4.986576E1,-3.7445957E1,-2.4974382E1,-1.3665545E1,-1.5309049E0,8.162669E0,1.924764E1,3.2588287E1,-2.4159217E0,-4.1703663E0,-1.9996773E0,-1.6653159E0,-2.1112959E1,-2.685887E1,-1.6409702E1,-9.9867325E0,-4.090492E0,1.8658947E0,3.979409E0,1.0247515E1,1.5341608E1,2.1569145E1,2.8387707E1,3.7220047E1,-1.1307038E0,-6.6437083E-1,-1.5151565E0,-1.1786919E0,-1.798983E1,-1.3233345E1,-1.1159888E1,-4.7632275E0,-6.990027E0,-2.1638892E0,-6.0698485E0,2.771241E0,3.0100558E0,9.3024856E-1,6.250123E0,1.1569236E1,1.70851E1,1.0762554E1,1.1393158E1,2.2014683E1,2.1859589E1,2.9334959E1,3.473915E1,2.1948326E0,-6.6616035E-1,-9.358322E-1,-6.783081E-1,-3.244317E-1,-4.3016082E-1,-7.2016686E-1,-1.0204221E-1,-3.775113E-1,-1.3726284E-1,-4.5478007E-1,2.4402936E-1,-1.63688E-1,-3.8771998E-2,-4.6347123E-1,2.1113046E-1,-1.8571685E-1,-2.8182694E-1,1.9327454E-1,3.4693688E-1,-3.841234E-1,3.725726E-1,6.155735E-1,7.9589194E-1,1.0376709E0,2.2558616E-1,6.567943E-1,3.263546E-1,9.236064E-1,9.8440504E-1,1.2184452E0,5.669463E-1,1.1595962E0,1.4946008E0,1.0075469E0,1.1475477E0,1.7743641E0],"categories":[],"categories_nodes":[],"categories_segments":[],"categories_sizes":[],"default_left":[0,0,0,0,0,0,0,0,0,0,0,0,0,0,0,0,0,0,0,0,0,0,0,0,0,0,0,0,0,0,0,0,0,0,0,0,0,0,0,0,0,0,0,0,0,0,0,0,0,0,0,0,0,0,0,0,0,0,0,0,0,0,0,0,0,0,0,0,0,0,0,0,0,0,0,0,0,0,0,0,0,0,0,0,0,0,0,0,0,0,0],"id":9,"left_children":[1,3,5,7,9,11,13,15,17,19,21,23,25,27,29,-1,-1,-1,-1,31,33,35,37,39,41,43,45,47,49,51,53,-1,-1,-1,-1,55,57,59,61,63,65,67,69,71,-1,73,75,77,79,81,83,85,87,89,-1,-1,-1,-1,-1,-1,-1,-1,-1,-1,-1,-1,-1,-1,-1,-1,-1,-1,-1,-1,-1,-1,-1,-1,-1,-1,-1,-1,-1,-1,-1,-1,-1,-1,-1,-1,-1],"loss_changes":[1.328781E6,1.0360956E5,1.5842966E5,1.295225E4,9.967469E3,1.6303842E4,4.051625E4,2.2884688E3,3.09E3,3.6684375E2,1.9938633E3,2.5031487E3,3.7952363E3,6.2215E3,5.5325E3,0E0,0E0,0E0,0E0,2.4803906E2,2.1935156E2,3.661172E2,5.2128125E2,9.0010425E2,9.073809E2,2.0400825E3,1.473957E3,1.9928398E3,1.7905781E3,4.790625E2,1.0843125E3,0E0,0E0,0E0,0E0,1.1986328E1,8.738281E0,5.040088E2,1.2779028E2,5.547954E2,7.976632E2,2.1202582E2,1.0699868E3,1.0571348E3,0E0,7.727959E2,5.7562695E2,5.0523438E2,1.0961221E3,6.003125E2,1.8765312E3,1.1203516E2,1.9075E2,2.38E2,0E0,0E0,0E0,0E0,0E0,0E0,0E0,0E0,0E0,0E0,0E0,0E0,0E0,0E0,0E0,0E0,0E0,0E0,0E0,0E0,0E0,0E0,0E0,0E0,0E0,0E0,0E0,0E0,0E0,0E0,0E0,0E0,0E0,0E0,0E0,0E0,0E0],"parents":[2147483647,0,0,1,1,2,2,3,3,4,4,5,5,6,6,7,7,8,8,9,9,10,10,11,11,12,12,13,13,14,14,19,19,20,20,21,21,22,22,23,23,24,24,25,25,26,26,27,27,28,28,29,29,30,30,35,35,36,36,37,37,38,38,39,39,40,40,41,41,42,42,43,43,45,45,46,46,47,47,48,48,49,49,50,50,51,51,52,52,53,53],"right_children":[2,4,6,8,10,12,14,16,18,20,22,24,26,28,30,-1,-1,-1,-1,32,34,36,38,40,42,44,46,48,50,52,54,-1,-1,-1,-1,56,58,60,62,64,66,68,70,72,-1,74,76,78,80,82,84,86,88,90,-1,-1,-1,-1,-1,-1,-1,-1,-1,-1,-1,-1,-1,-1,-1,-1,-1,-1,-1,-1,-1,-1,-1,-1,-1,-1,-1,-1,-1,-1,-1,-1,-1,-1,-1,-1,-1],"split_conditions":[-3.4885392E-1,-1.1392167E0,4.8335475E-1,-1.7157634E0,-8.3104324E-1,1.3824943E-1,1.064124E0,-9.137445E-1,-1.4308149E0,-3.661198E-1,-4.7450083E-1,1.0901688E-2,1.9077949E-1,6.27366E-1,1.1898746E0,-2.4159217E0,-4.1703663E0,-1.9996773E0,-1.6653159E0,-8.2028115E-1,-1.1238619E0,-6.2893796E-1,-6.739068E-2,-2.5481707E-1,-3.1195456E-1,8.9129716E-1,3.0079573E-1,7.045695E-1,-1.2290232E0,9.005025E-1,1.5687068E0,-1.1307038E0,-6.6437083E-1,-1.5151565E0,-1.1786919E0,-1.136544E0,1.5401111E0,-1.1163069E-1,-3.4813276E-1,-7.136427E-1,-9.995278E-1,-5.9803826E-1,1.364082E0,-1.6162546E-1,9.3024856E-1,8.321273E-1,-1.2290232E0,7.482378E-1,7.606781E-1,1.7133063E0,8.3094E-1,6.342619E-1,7.045695E-1,-1.0040758E0,2.1948326E0,-6.6616035E-1,-9.358322E-1,-6.783081E-1,-3.244317E-1,-4.3016082E-1,-7.2016686E-1,-1.0204221E-1,-3.775113E-1,-1.3726284E-1,-4.5478007E-1,2.4402936E-1,-1.63688E-1,-3.8771998E-2,-4.6347123E-1,2.1113046E-1,-1.8571685E-1,-2.8182694E-1,1.9327454E-1,3.4693688E-1,-3.841234E-1,3.725726E-1,6.155735E-1,7.9589194E-1,1.0376709E0,2.2558616E-1,6.567943E-1,3.263546E-1,9.236064E-1,9.8440504E-1,1.2184452E0,5.669463E-1,1.1595962E0,1.4946008E0,1.0075469E0,1.1475477E0,1.7743641E0],"split_indices":[15,10,15,10,15,10,15,4,10,7,10,15,15,10,10,0,0,0,0,10,15,17,17,10,10,20,10,6,6,16,15,0,0,0,0,13,25,12,16,13,7,13,6,20,0,11,6,20,22,11,15,10,6,6,0,0,0,0,0,0,0,0,0,0,0,0,0,0,0,0,0,0,0,0,0,0,0,0,0,0,0,0,0,0,0,0,0,0,0,0,0],"split_type":[0,0,0,0,0,0,0,0,0,0,0,0,0,0,0,0,0,0,0,0,0,0,0,0,0,0,0,0,0,0,0,0,0,0,0,0,0,0,0,0,0,0,0,0,0,0,0,0,0,0,0,0,0,0,0,0,0,0,0,0,0,0,0,0,0,0,0,0,0,0,0,0,0,0,0,0,0,0,0,0,0,0,0,0,0,0,0,0,0,0,0],"sum_hessian":[2.666E3,8.81E2,1.785E3,5.4E2,3.41E2,7.25E2,1.06E3,1.21E2,4.19E2,1.28E2,2.13E2,2.86E2,4.39E2,7.22E2,3.38E2,1.18E2,3E0,2.54E2,1.65E2,4.6E1,8.2E1,1.2E2,9.3E1,1.63E2,1.23E2,1.47E2,2.92E2,2.72E2,4.5E2,1.81E2,1.57E2,3.7E1,9E0,3.6E1,4.6E1,7.7E1,4.3E1,7.5E1,1.8E1,6.4E1,9.9E1,1.2E1,1.11E2,1.39E2,8E0,7.4E1,2.18E2,1.95E2,7.7E1,2E1,4.3E2,2.6E1,1.55E2,1.19E2,3.8E1,1.3E1,6.4E1,4E1,3E0,4.4E1,3.1E1,1E1,8E0,2.2E1,4.2E1,1.3E1,8.6E1,5E0,7E0,9.1E1,2E1,1.2E1,1.27E2,7.1E1,3E0,3.5E1,1.83E2,1.52E2,4.3E1,2.2E1,5.5E1,1.3E1,7E0,2.21E2,2.09E2,4E0,2.2E1,1.44E2,1.1E1,9E0,1.1E2],"tree_param":{"num_deleted":"0","num_feature":"26","num_nodes":"91","size_leaf_vector":"1"}},{"base_weights":[-4.691459E-1,-3.02354E1,1.4780101E1,-3.9022747E1,-1.7752352E1,6.608122E0,2.4737669E1,-2.3874567E0,-3.6647934E1,-2.35201E1,-1.2103142E1,-1.9404417E-2,1.076875E1,2.043537E1,3.1858002E1,-1.9604275E0,-1.6968358E0,-2.6008486E1,-1.967318E1,-1.4652384E1,-9.285627E0,-5.9630203E0,2.5634725E0,7.1221724E0,1.3189702E1,1.8634356E1,2.4991777E1,2.9670986E1,3.8338573E1,-1.0201749E0,-1.3682911E0,-2.1162205E1,-1.5991895E1,-1.5089393E1,-7.8373604E0,-6.624872E0,-1.2643005E1,3.8043824E-1,-6.9388604E0,1.5643938E0,1.2785962E1,5.4769826E0,1.1507892E1,1.1517729E1,1.5604072E1,2.2306911E1,1.7479538E1,6.349436E-1,2.5265257E1,2.6208752E1,1.6293757E0,8.468631E-1,3.9032204E1,-1.08654E0,-5.7824916E-1,-5.523467E-1,-8.7851906E-1,-8.4484863E-1,-6.179902E-1,-4.6684957E-1,-1.9892405E-1,-4.439156E-1,-5.960956E-2,-7.0091575E-1,-2.6884896E-1,-1.7760962E-1,2.3847966E-1,-2.8222686E-1,-5.8497477E-1,-6.804878E-2,1.645175E-1,8.16309E-1,2.7269137E-1,-3.2994516E-2,3.1146467E-1,1.3231364E-2,6.441123E-1,5.234322E-1,7.9636365E-1,8.9211816E-1,6.2979025E-1,8.7487143E-1,1.2593411E0,4.9652624E-1,9.1950315E-1,1.2781105E0,7.35137E-1,1.3363756E0,5.0783867E-1,9.974514E-1,1.9955819E0],"categories":[],"categories_nodes":[],"categories_segments":[],"categories_sizes":[],"default_left":[0,0,0,0,0,0,0,0,0,0,0,0,0,0,0,0,0,0,0,0,0,0,0,0,0,0,0,0,0,0,0,0,0,0,0,0,0,0,0,0,0,0,0,0,0,0,0,0,0,0,0,0,0,0,0,0,0,0,0,0,0,0,0,0,0,0,0,0,0,0,0,0,0,0,0,0,0,0,0,0,0,0,0,0,0,0,0,0,0,0,0],"id":10,"left_children":[1,3,5,7,9,11,13,-1,15,17,19,21,23,25,27,-1,-1,29,31,33,35,37,39,41,43,45,47,49,51,-1,-1,53,55,57,59,61,63,65,67,69,71,73,75,77,79,81,83,-1,85,87,-1,-1,89,-1,-1,-1,-1,-1,-1,-1,-1,-1,-1,-1,-1,-1,-1,-1,-1,-1,-1,-1,-1,-1,-1,-1,-1,-1,-1,-1,-1,-1,-1,-1,-1,-1,-1,-1,-1,-1,-1],"loss_changes":[1.2005941E6,9.758644E4,1.4215484E5,9.1215E3,1.1832727E4,2.6528121E4,2.3483156E4,0E0,1.5570625E3,1.2355469E3,1.2262305E3,5.7264316E3,5.121492E3,3.5837812E3,3.0367188E3,0E0,0E0,2.5851562E2,7.445703E1,1.713125E2,7.4509814E2,7.027888E2,2.6339617E3,1.6525244E3,1.2465742E3,1.1244375E3,1.3592969E2,1.4120156E3,3.8726562E2,0E0,0E0,2.365625E1,5.984375E0,2.372207E2,7.8165894E0,6.494883E2,3.2240625E2,2.9323904E2,5.360835E2,1.2063474E3,5.0580054E2,8.126138E2,9.842197E2,8.15959E2,7.283633E2,6.908008E2,1.7185156E3,0E0,3.7304688E1,6.241719E2,0E0,0E0,3.3902344E2,0E0,0E0,0E0,0E0,0E0,0E0,0E0,0E0,0E0,0E0,0E0,0E0,0E0,0E0,0E0,0E0,0E0,0E0,0E0,0E0,0E0,0E0,0E0,0E0,0E0,0E0,0E0,0E0,0E0,0E0,0E0,0E0,0E0,0E0,0E0,0E0,0E0,0E0],"parents":[2147483647,0,0,1,1,2,2,3,3,4,4,5,5,6,6,8,8,9,9,10,10,11,11,12,12,13,13,14,14,17,17,18,18,19,19,20,20,21,21,22,22,23,23,24,24,25,25,26,26,27,27,28,28,31,31,32,32,33,33,34,34,35,35,36,36,37,37,38,38,39,39,40,40,41,41,42,42,43,43,44,44,45,45,46,46,48,48,49,49,52,52],"right_children":[2,4,6,8,10,12,14,-1,16,18,20,22,24,26,28,-1,-1,30,32,34,36,38,40,42,44,46,48,50,52,-1,-1,54,56,58,60,62,64,66,68,70,72,74,76,78,80,82,84,-1,86,88,-1,-1,90,-1,-1,-1,-1,-1,-1,-1,-1,-1,-1,-1,-1,-1,-1,-1,-1,-1,-1,-1,-1,-1,-1,-1,-1,-1,-1,-1,-1,-1,-1,-1,-1,-1,-1,-1,-1,-1,-1],"split_conditions":[-3.4885392E-1,-1.2219676E0,6.6615343E-1,-1.7716695E0,-7.6873106E-1,1.9077949E-1,1.1130488E0,-2.3874567E0,-1.5236633E0,-8.919493E-1,-4.7450083E-1,-1.6984968E-1,3.857631E-1,9.844753E-1,1.4066031E0,-1.9604275E0,-1.6968358E0,-9.995278E-1,-8.617126E-1,1.5185304E0,5.2668816E-1,-7.281769E-1,7.810598E-1,4.8335475E-1,6.798241E-1,-9.995278E-1,-4.318431E-1,2.6897845E-1,-3.2086095E-1,-1.0201749E0,-1.3682911E0,9.4083047E-1,3.6796468E-1,-6.171398E-1,-5.625653E-1,1.9669676E-1,1.4982306E0,-6.732506E-1,1.4982306E0,-5.238414E-2,9.4083047E-1,-7.9226923E-1,2.3651893E-1,1.0852554E0,2.0891218E-1,-1.7935659E-1,3.6527675E-1,6.349436E-1,1.4488539E0,5.093483E-1,1.6293757E0,8.468631E-1,5.5674964E-1,-1.08654E0,-5.7824916E-1,-5.523467E-1,-8.7851906E-1,-8.4484863E-1,-6.179902E-1,-4.6684957E-1,-1.9892405E-1,-4.439156E-1,-5.960956E-2,-7.0091575E-1,-2.6884896E-1,-1.7760962E-1,2.3847966E-1,-2.8222686E-1,-5.8497477E-1,-6.804878E-2,1.645175E-1,8.16309E-1,2.7269137E-1,-3.2994516E-2,3.1146467E-1,1.3231364E-2,6.441123E-1,5.234322E-1,7.9636365E-1,8.9211816E-1,6.2979025E-1,8.7487143E-1,1.2593411E0,4.9652624E-1,9.1950315E-1,1.2781105E0,7.35137E-1,1.3363756E0,5.0783867E-1,9.974514E-1,1.9955819E0],"split_indices":[15,10,15,10,15,15,15,0,10,10,10,10,10,10,10,0,0,7,15,0,19,20,22,15,10,7,23,19,23,0,0,0,23,17,15,24,2,10,2,15,0,0,16,0,19,19,7,0,16,23,0,0,22,0,0,0,0,0,0,0,0,0,0,0,0,0,0,0,0,0,0,0,0,0,0,0,0,0,0,0,0,0,0,0,0,0,0,0,0,0,0],"split_type":[0,0,0,0,0,0,0,0,0,0,0,0,0,0,0,0,0,0,0,0,0,0,0,0,0,0,0,0,0,0,0,0,0,0,0,0,0,0,0,0,0,0,0,0,0,0,0,0,0,0,0,0,0,0,0,0,0,0,0,0,0,0,0,0,0,0,0,0,0,0,0,0,0,0,0,0,0,0,0,0,0,0,0,0,0,0,0,0,0,0,0],"sum_hessian":[2.643E3,8.95E2,1.748E3,5.24E2,3.71E2,9.61E2,7.87E2,1.08E2,4.16E2,1.82E2,1.89E2,3.71E2,5.9E2,4.93E2,2.94E2,2.07E2,2.09E2,1.07E2,7.5E1,9.7E1,9.2E1,1.12E2,2.59E2,2.37E2,3.53E2,3.57E2,1.36E2,2.24E2,7E1,2.4E1,8.3E1,5E1,2.5E1,9E1,7E0,5.3E1,3.9E1,1.5E1,9.7E1,2.37E2,2.2E1,1.74E2,6.3E1,2.12E2,1.41E2,8.1E1,2.76E2,4E0,1.32E2,1.07E2,1.17E2,3E0,6.7E1,4.6E1,4E0,8E0,1.7E1,5.1E1,3.9E1,4E0,3E0,3.7E1,1.6E1,3.2E1,7E0,8E0,7E0,7.8E1,1.9E1,8.8E1,1.49E2,1.4E1,8E0,1.9E1,1.55E2,7E0,5.6E1,1.74E2,3.8E1,7.8E1,6.3E1,3.3E1,4.8E1,3.1E1,2.45E2,1.27E2,5E0,1.03E2,4E0,4E0,6.3E1],"tree_param":{"num_deleted":"0","num_feature":"26","num_nodes":"91","size_leaf_vector":"1"}},{"base_weights":[4.0584236E-1,-2.7175411E1,1.4524644E1,-3.6069225E1,-1.4265757E1,6.0103536E0,2.215347E1,-4.331244E1,-3.253754E1,-1.7458466E1,-7.384003E0,6.955891E-1,1.05120325E1,1.8070011E1,2.8539389E1,-5.2332813E1,-2.035504E0,-1.7526432E0,-1.406579E0,-2.1589956E1,-1.4260125E1,-4.594919E0,-1.1708095E1,-6.9538126E0,2.4233341E0,8.869753E0,1.6755138E1,9.442675E0,1.8881212E1,2.5035452E1,3.435715E1,-4.742477E1,-3.9244478E0,-1.8768967E1,-1.2186424E0,-1.8731041E1,-1.2610731E1,-7.8490586E0,-1.4707156E0,-1.2392542E1,-1.7985587E-1,-1.1185106E1,-2.0172546E0,9.452756E0,1.3027884E0,6.2797246E0,1.1128052E1,1.767994E1,5.13331E-1,4.182702E0,1.2431949E1,1.6318851E1,2.1561916E1,2.6459362E1,2.0047821E1,1.059868E0,3.536912E1,-2.4571865E0,-1.154056E0,-1.0459123E0,-7.1482956E-1,-6.9694024E-1,-1.0370944E0,-4.9096856E-1,-7.5854933E-1,-2.9552457E-1,-5.081177E-1,2.276033E-1,-1.3533692E-1,-6.961253E-1,-4.901227E-1,-6.2970966E-1,-7.771383E-2,-1.9795875E-1,1.9028834E-1,9.386906E-1,3.3914888E-1,-6.279561E-2,2.2535418E-1,2.2432573E-1,5.130365E-1,6.9401807E-1,4.3945608E-1,5.867001E-1,9.548279E-1,1.3466597E-1,4.7209522E-1,8.320759E-2,6.7425126E-1,8.9416564E-1,5.7035094E-1,8.184084E-1,1.1700922E0,9.6181947E-1,1.388081E0,6.024169E-1,1.0885797E0,1.6539433E0,2.189231E0],"categories":[],"categories_nodes":[],"categories_segments":[],"categories_sizes":[],"default_left":[0,0,0,0,0,0,0,0,0,0,0,0,0,0,0,0,0,0,0,0,0,0,0,0,0,0,0,0,0,0,0,0,0,0,0,0,0,0,0,0,0,0,0,0,0,0,0,0,0,0,0,0,0,0,0,0,0,0,0,0,0,0,0,0,0,0,0,0,0,0,0,0,0,0,0,0,0,0,0,0,0,0,0,0,0,0,0,0,0,0,0,0,0,0,0,0,0,0,0],"id":11,"left_children":[1,3,5,7,9,11,13,15,17,19,21,23,25,27,29,31,-1,-1,-1,33,35,37,39,41,43,45,47,49,51,53,55,57,-1,59,-1,61,63,65,67,69,-1,71,73,75,77,79,81,83,-1,85,87,89,91,93,95,-1,97,-1,-1,-1,-1,-1,-1,-1,-1,-1,-1,-1,-1,-1,-1,-1,-1,-1,-1,-1,-1,-1,-1,-1,-1,-1,-1,-1,-1,-1,-1,-1,-1,-1,-1,-1,-1,-1,-1,-1,-1,-1,-1],"loss_changes":[1.03857175E6,1.0315925E5,1.1444297E5,1.22433125E4,7.9980312E3,1.9969248E4,2.3730906E4,1.8977812E3,3.0305312E3,3.0184453E3,1.3797422E3,5.0914253E3,4.4831445E3,3.8080312E3,6.4929375E3,7.5822656E2,0E0,0E0,0E0,3.8608594E2,8.2992773E2,7.398522E2,2.0919482E2,1.4591667E3,2.4599214E3,2.034041E3,3.737461E2,7.482378E2,3.2161875E3,1.0912344E3,1.0158281E3,1.9755469E2,0E0,2.549375E2,0E0,6.3961914E1,6.275117E2,9.976953E1,3.0246423E2,2.7587402E1,0E0,4.946963E2,3.9954974E2,9.401633E2,2.2360676E3,1.166082E3,1.1052891E3,4.466875E2,0E0,1.3001569E2,3.3890186E2,1.8678594E3,2.0115625E3,1.1073594E3,4.9271875E2,0E0,8.9534375E2,0E0,0E0,0E0,0E0,0E0,0E0,0E0,0E0,0E0,0E0,0E0,0E0,0E0,0E0,0E0,0E0,0E0,0E0,0E0,0E0,0E0,0E0,0E0,0E0,0E0,0E0,0E0,0E0,0E0,0E0,0E0,0E0,0E0,0E0,0E0,0E0,0E0,0E0,0E0,0E0,0E0,0E0],"parents":[2147483647,0,0,1,1,2,2,3,3,4,4,5,5,6,6,7,7,8,8,9,9,10,10,11,11,12,12,13,13,14,14,15,15,19,19,20,20,21,21,22,22,23,23,24,24,25,25,26,26,27,27,28,28,29,29,30,30,31,31,33,33,35,35,36,36,37,37,38,38,39,39,41,41,42,42,43,43,44,44,45,45,46,46,47,47,49,49,50,50,51,51,52,52,53,53,54,54,56,56],"right_children":[2,4,6,8,10,12,14,16,18,20,22,24,26,28,30,32,-1,-1,-1,34,36,38,40,42,44,46,48,50,52,54,56,58,-1,60,-1,62,64,66,68,70,-1,72,74,76,78,80,82,84,-1,86,88,90,92,94,96,-1,98,-1,-1,-1,-1,-1,-1,-1,-1,-1,-1,-1,-1,-1,-1,-1,-1,-1,-1,-1,-1,-1,-1,-1,-1,-1,-1,-1,-1,-1,-1,-1,-1,-1,-1,-1,-1,-1,-1,-1,-1,-1,-1],"split_conditions":[-2.7969158E-1,-1.1047372E0,5.832815E-1,-1.6524689E0,-4.3828258E-1,2.4709652E-1,1.023587E0,-2.0191832E0,-1.3677666E0,-7.9540664E-1,3.6318073E-1,-3.4813276E-1,8.1467986E-1,-1.2290232E0,1.2305113E0,-1.7332735E0,-2.035504E0,-1.7526432E0,-1.406579E0,3.6318073E-1,-1.1228727E0,-4.9894202E-1,3.7640527E-1,-2.277411E-1,-9.995278E-1,3.2246858E-1,7.045695E-1,7.836996E-1,8.50744E-1,3.6318073E-1,-1.0040758E0,-1.5888348E0,-3.9244478E0,-1.0313717E0,-1.2186424E0,-7.959287E-1,-3.3497456E-1,-1.4789255E-1,-7.425579E-1,3.6136246E-1,-1.7985587E-1,-8.1911504E-2,4.622557E-3,-3.1745606E-3,1.8652076E-1,5.329544E-1,4.324625E-1,1.6292475E-1,5.13331E-1,9.1571414E-1,5.845146E-1,1.2226741E0,-1.0040758E0,5.4267234E-1,8.7266314E-1,1.059868E0,1.6282572E0,-2.4571865E0,-1.154056E0,-1.0459123E0,-7.1482956E-1,-6.9694024E-1,-1.0370944E0,-4.9096856E-1,-7.5854933E-1,-2.9552457E-1,-5.081177E-1,2.276033E-1,-1.3533692E-1,-6.961253E-1,-4.901227E-1,-6.2970966E-1,-7.771383E-2,-1.9795875E-1,1.9028834E-1,9.386906E-1,3.3914888E-1,-6.279561E-2,2.2535418E-1,2.2432573E-1,5.130365E-1,6.9401807E-1,4.3945608E-1,5.867001E-1,9.548279E-1,1.3466597E-1,4.7209522E-1,8.320759E-2,6.7425126E-1,8.9416564E-1,5.7035094E-1,8.184084E-1,1.1700922E0,9.6181947E-1,1.388081E0,6.024169E-1,1.0885797E0,1.6539433E0,2.189231E0],"split_indices":[10,10,10,10,16,16,16,10,10,10,6,16,16,6,10,20,0,0,0,6,17,14,22,22,7,10,6,20,10,6,6,16,0,14,0,12,12,13,4,14,0,17,1,6,10,17,12,14,0,17,13,6,6,14,10,0,10,0,0,0,0,0,0,0,0,0,0,0,0,0,0,0,0,0,0,0,0,0,0,0,0,0,0,0,0,0,0,0,0,0,0,0,0,0,0,0,0,0,0],"split_type":[0,0,0,0,0,0,0,0,0,0,0,0,0,0,0,0,0,0,0,0,0,0,0,0,0,0,0,0,0,0,0,0,0,0,0,0,0,0,0,0,0,0,0,0,0,0,0,0,0,0,0,0,0,0,0,0,0,0,0,0,0,0,0,0,0,0,0,0,0,0,0,0,0,0,0,0,0,0,0,0,0,0,0,0,0,0,0,0,0,0,0,0,0,0,0,0,0,0,0],"sum_hessian":[2.665E3,9.02E2,1.763E3,5.33E2,3.69E2,8.34E2,9.29E2,1.71E2,3.62E2,2.51E2,1.18E2,3.83E2,4.51E2,5.69E2,3.6E2,3.4E1,1.37E2,2.26E2,1.36E2,1.07E2,1.44E2,7.3E1,4.5E1,7E1,3.13E2,3.59E2,9.2E1,5E1,5.19E2,2.28E2,1.32E2,3.1E1,3E0,5.7E1,5E1,3.6E1,1.08E2,3.5E1,3.8E1,4.1E1,4E0,3.7E1,3.3E1,4.2E1,2.71E2,1.69E2,1.9E2,7.9E1,1.3E1,1.9E1,3.1E1,2.69E2,2.5E2,1.74E2,5.4E1,1.1E1,1.21E2,2.8E1,3E0,3.6E1,2.1E1,1.3E1,2.3E1,5.4E1,5.4E1,2.1E1,1.4E1,6E0,3.2E1,2.3E1,1.8E1,3.2E1,5E0,2.5E1,8E0,8E0,3.4E1,1.51E2,1.2E2,1.18E2,5.1E1,8.5E1,1.05E2,1.7E1,6.2E1,1.6E1,3E0,3E0,2.8E1,2.02E2,6.7E1,6.8E1,1.82E2,2.9E1,1.45E2,1.1E1,4.3E1,9.9E1,2.2E1],"tree_param":{"num_deleted":"0","num_feature":"26","num_nodes":"99","size_leaf_vector":"1"}},{"base_weights":[2.2693875E-1,-2.5545036E1,1.4423797E1,-3.4123848E1,-1.3444173E1,6.7695966E0,2.2249008E1,-3.8513783E1,-2.9176157E1,-1.950975E1,-9.352243E0,2.6516366E0,1.1034384E1,1.8726946E1,2.8538544E1,-2.2977884E0,-1.8174604E0,-1.5375491E0,-1.2377129E0,-1.7893196E1,-2.4353714E1,-1.2229229E1,-7.1572814E0,-1.1125375E0,5.2414184E0,7.6598663E0,1.3065419E1,1.5094553E1,2.0971043E1,2.501692E1,3.1614265E1,-1.9887632E1,-1.4685603E1,-1.391839E0,-7.887227E-1,-5.8889008E0,-1.2929831E1,-4.9980893E0,-9.721806E0,-5.6699314E0,3.2701877E-1,3.6393993E0,1.0318696E1,4.4828486E0,1.0096415E1,7.640836E0,1.374517E1,1.6353996E1,9.854569E0,7.449021E0,2.1318E1,2.5481213E1,6.876094E-1,1.7364311E1,3.245343E1,-1.0628127E0,-7.596488E-1,-4.1502357E-1,-7.7552503E-1,-6.2836814E-1,-4.8312467E-2,-8.0477124E-1,-5.553741E-1,-3.6064717E-1,-3.12829E-2,-5.138624E-1,-6.5716155E-2,-1.6230027E-1,-5.596339E-1,-1.9999321E-1,1.2098757E-1,1.471564E-1,6.081564E-1,1.9093795E-1,5.885627E-1,-1.15818165E-1,3.1414634E-1,3.1673065E-1,6.1999065E-1,1.8862063E-1,6.882754E-1,6.5306515E-1,9.8995495E-1,2.2433172E-1,8.341908E-1,2.308919E-1,6.0705584E-1,7.4449074E-1,-0E0,9.5960045E-1,1.1474898E0,1.0070759E0,1.3407071E0,5.030022E-1,1.0043372E0,1.240594E0,1.720628E0],"categories":[],"categories_nodes":[],"categories_segments":[],"categories_sizes":[],"default_left":[0,0,0,0,0,0,0,0,0,0,0,0,0,0,0,0,0,0,0,0,0,0,0,0,0,0,0,0,0,0,0,0,0,0,0,0,0,0,0,0,0,0,0,0,0,0,0,0,0,0,0,0,0,0,0,0,0,0,0,0,0,0,0,0,0,0,0,0,0,0,0,0,0,0,0,0,0,0,0,0,0,0,0,0,0,0,0,0,0,0,0,0,0,0,0,0,0],"id":12,"left_children":[1,3,5,7,9,11,13,15,17,19,21,23,25,27,29,-1,-1,-1,-1,31,33,35,37,39,41,43,45,47,49,51,53,55,57,-1,-1,59,61,63,65,67,69,71,73,75,77,79,81,83,85,87,89,91,-1,93,95,-1,-1,-1,-1,-1,-1,-1,-1,-1,-1,-1,-1,-1,-1,-1,-1,-1,-1,-1,-1,-1,-1,-1,-1,-1,-1,-1,-1,-1,-1,-1,-1,-1,-1,-1,-1,-1,-1,-1,-1,-1,-1],"loss_changes":[9.816604E5,9.846831E4,1.0346609E5,1.09676875E4,9.668164E3,1.5353879E4,1.8400906E4,3.0250312E3,1.0855781E3,8.050625E2,1.4197871E3,4.3637744E3,2.8449648E3,4.1712812E3,2.5070625E3,0E0,0E0,0E0,0E0,4.9135547E2,6.6216797E2,3.750625E2,7.1408496E2,1.2029829E3,2.1165332E3,1.2227988E3,8.773633E2,1.2485078E3,1.4240781E3,4.1448438E2,1.3328281E3,1.4244531E2,1.3749512E2,0E0,0E0,3.810123E2,3.434629E2,7.403943E2,2.7486523E2,5.5124084E2,1.2772218E3,1.1674622E3,5.4830664E2,9.084055E2,7.16751E2,7.044874E2,7.1516797E2,5.9233984E2,4.6911572E2,5.536538E2,6.966875E2,4.5166406E2,0E0,1.3650635E1,1.3708906E3,0E0,0E0,0E0,0E0,0E0,0E0,0E0,0E0,0E0,0E0,0E0,0E0,0E0,0E0,0E0,0E0,0E0,0E0,0E0,0E0,0E0,0E0,0E0,0E0,0E0,0E0,0E0,0E0,0E0,0E0,0E0,0E0,0E0,0E0,0E0,0E0,0E0,0E0,0E0,0E0,0E0,0E0],"parents":[2147483647,0,0,1,1,2,2,3,3,4,4,5,5,6,6,7,7,8,8,9,9,10,10,11,11,12,12,13,13,14,14,19,19,20,20,21,21,22,22,23,23,24,24,25,25,26,26,27,27,28,28,29,29,30,30,31,31,32,32,35,35,36,36,37,37,38,38,39,39,40,40,41,41,42,42,43,43,44,44,45,45,46,46,47,47,48,48,49,49,50,50,51,51,53,53,54,54],"right_children":[2,4,6,8,10,12,14,16,18,20,22,24,26,28,30,-1,-1,-1,-1,32,34,36,38,40,42,44,46,48,50,52,54,56,58,-1,-1,60,62,64,66,68,70,72,74,76,78,80,82,84,86,88,90,92,-1,94,96,-1,-1,-1,-1,-1,-1,-1,-1,-1,-1,-1,-1,-1,-1,-1,-1,-1,-1,-1,-1,-1,-1,-1,-1,-1,-1,-1,-1,-1,-1,-1,-1,-1,-1,-1,-1,-1,-1,-1,-1,-1,-1],"split_conditions":[-2.512477E-1,-1.1047372E0,6.459507E-1,-1.534746E0,-7.0885295E-1,3.1418687E-1,1.1130488E0,-1.8923478E0,-1.2589529E0,1.364082E0,-4.7450083E-1,1.2125596E-1,4.0768224E-1,7.3967075E-1,1.1760828E0,-2.2977884E0,-1.8174604E0,-1.5375491E0,-1.2377129E0,-8.2028115E-1,-3.5257062E-1,-9.7598124E-1,3.114732E-1,-2.5481707E-1,6.243964E-1,-7.014435E-2,-1.2290232E0,7.045695E-1,-1.2290232E0,1.6259367E0,-1.0040758E0,1.10179156E-1,-9.058185E-1,-1.391839E0,-7.887227E-1,-1.6327335E-1,1.10179156E-1,-1.8536547E-1,2.8971303E-1,3.6318073E-1,-5.034193E-1,1.0348082E0,1.8652076E-1,1.2692045E-1,1.6849166E-2,1.1153634E0,1.0538204E0,-9.058185E-1,-5.913318E-1,1.1567276E0,9.211808E-1,-5.3512144E-1,6.876094E-1,1.023587E0,-7.165441E-2,-1.0628127E0,-7.596488E-1,-4.1502357E-1,-7.7552503E-1,-6.2836814E-1,-4.8312467E-2,-8.0477124E-1,-5.553741E-1,-3.6064717E-1,-3.12829E-2,-5.138624E-1,-6.5716155E-2,-1.6230027E-1,-5.596339E-1,-1.9999321E-1,1.2098757E-1,1.471564E-1,6.081564E-1,1.9093795E-1,5.885627E-1,-1.15818165E-1,3.1414634E-1,3.1673065E-1,6.1999065E-1,1.8862063E-1,6.882754E-1,6.5306515E-1,9.8995495E-1,2.2433172E-1,8.341908E-1,2.308919E-1,6.0705584E-1,7.4449074E-1,-0E0,9.5960045E-1,1.1474898E0,1.0070759E0,1.3407071E0,5.030022E-1,1.0043372E0,1.240594E0,1.720628E0],"split_indices":[15,10,15,10,15,15,15,10,15,6,10,10,10,10,10,0,0,0,0,10,18,12,19,10,14,0,6,6,6,13,6,25,19,0,0,19,25,10,10,6,0,18,10,10,14,18,18,19,1,19,10,19,0,16,25,0,0,0,0,0,0,0,0,0,0,0,0,0,0,0,0,0,0,0,0,0,0,0,0,0,0,0,0,0,0,0,0,0,0,0,0,0,0,0,0,0,0],"split_type":[0,0,0,0,0,0,0,0,0,0,0,0,0,0,0,0,0,0,0,0,0,0,0,0,0,0,0,0,0,0,0,0,0,0,0,0,0,0,0,0,0,0,0,0,0,0,0,0,0,0,0,0,0,0,0,0,0,0,0,0,0,0,0,0,0,0,0,0,0,0,0,0,0,0,0,0,0,0,0,0,0,0,0,0,0,0,0,0,0,0,0,0,0,0,0,0,0],"sum_hessian":[2.681E3,9.52E2,1.729E3,5.56E2,3.96E2,8.75E2,8.54E2,2.91E2,2.65E2,1.58E2,2.38E2,4.46E2,4.29E2,5.5E2,3.04E2,6.1E1,2.3E2,1.91E2,7.4E1,1.22E2,3.6E1,1.01E2,1.37E2,1.82E2,2.64E2,1.63E2,2.66E2,2.13E2,3.37E2,1.46E2,1.58E2,7.2E1,5E1,2.4E1,1.2E1,1.1E1,9E1,7.6E1,6.1E1,4.3E1,1.39E2,2.02E2,6.2E1,7.2E1,9.1E1,3.1E1,2.35E2,1.7E2,4.3E1,9E0,3.28E2,1.39E2,7E0,1E1,1.48E2,5.3E1,1.9E1,7E0,4.3E1,4E0,7E0,3E1,6E1,5E1,2.6E1,5.7E1,4E0,3.1E1,1.2E1,4.5E1,9.4E1,1.88E2,1.4E1,1.2E1,5E1,1.5E1,5.7E1,3.6E1,5.5E1,2E1,1.1E1,2.14E2,2.1E1,5E0,1.65E2,1.4E1,2.9E1,4E0,5E0,1.48E2,1.8E2,3.1E1,1.08E2,4E0,6E0,3.3E1,1.15E2],"tree_param":{"num_deleted":"0","num_feature":"26","num_nodes":"97","size_leaf_vector":"1"}},{"base_weights":[4.505931E-2,-2.4855017E1,1.3189949E1,-3.306897E1,-1.4370917E1,6.286689E0,2.1244389E1,-3.861863E1,-3.003336E1,-2.1389181E1,-1.0476128E1,2.1622453E0,1.0485456E1,1.8389633E1,2.8319775E1,-2.2834637E0,-1.8392458E0,-1.6014767E0,-2.7226637E1,-2.512199E1,-1.9777847E1,-1.267691E1,-7.355621E0,-1.3421136E0,4.8344674E0,7.763709E0,1.3027758E1,1.6490623E1,2.2484186E1,2.458162E1,3.1084196E1,-1.3975958E0,-1.0591128E0,-6.2704086E-1,-1.2900221E0,-9.986372E-1,-4.8948985E-1,-1.4846231E1,-1.1356015E1,-9.255821E0,-4.0888853E0,-4.2411384E-1,-6.194412E0,4.255811E0,1.4458386E1,6.353196E0,1.1299356E1,1.3717456E1,7.716296E0,1.712194E1,9.188151E0,1.7330465E1,2.3557629E1,1.9098671E1,1.3285946E0,8.000838E-1,3.1948315E1,-3.492111E-1,-7.581787E-1,-3.1785628E-1,-5.982153E-1,-7.4471897E-1,-4.0330777E-1,-1.1667086E-1,-4.21053E-1,-2.3248446E-1,2.9141748E-2,-1.4276157E-1,-5.257535E-1,-3.3467424E-3,2.5726902E-1,7.8529304E-1,3.538184E-1,4.156036E-1,1.989897E-1,3.68706E-1,7.889492E-1,6.3914156E-1,1.0250947E0,7.511259E-2,4.4475076E-1,8.701329E-1,2.0054427E-1,3.174623E-1,7.268876E-1,6.4275193E-1,1.2414389E0,1.2081574E0,8.0360603E-1,1.030795E0,4.6621177E-1,1.2520345E0,1.6787093E0],"categories":[],"categories_nodes":[],"categories_segments":[],"categories_sizes":[],"default_left":[0,0,0,0,0,0,0,0,0,0,0,0,0,0,0,0,0,0,0,0,0,0,0,0,0,0,0,0,0,0,0,0,0,0,0,0,0,0,0,0,0,0,0,0,0,0,0,0,0,0,0,0,0,0,0,0,0,0,0,0,0,0,0,0,0,0,0,0,0,0,0,0,0,0,0,0,0,0,0,0,0,0,0,0,0,0,0,0,0,0,0,0,0],"id":13,"left_children":[1,3,5,7,9,11,13,15,17,19,21,23,25,27,29,-1,-1,-1,31,33,35,37,39,41,43,45,47,49,51,53,55,-1,-1,-1,-1,-1,-1,57,59,61,63,65,67,69,71,73,75,77,79,81,83,85,87,89,-1,-1,91,-1,-1,-1,-1,-1,-1,-1,-1,-1,-1,-1,-1,-1,-1,-1,-1,-1,-1,-1,-1,-1,-1,-1,-1,-1,-1,-1,-1,-1,-1,-1,-1,-1,-1,-1,-1],"loss_changes":[8.781687E5,7.934944E4,9.7500625E4,7.5766875E3,1.0952617E4,1.6375809E4,1.58353125E4,6.3903125E2,1.0269375E3,3.7078906E2,1.7246523E3,4.4923975E3,3.1420234E3,4.135172E3,1.6174688E3,0E0,0E0,0E0,5.18125E1,1.4035156E1,7.8398438E0,2.700625E2,6.560542E2,9.232282E2,1.4513481E3,1.0684873E3,7.748672E2,1.6841172E3,5.889844E2,6.119375E2,1.16525E3,0E0,0E0,0E0,0E0,0E0,0E0,2.9101562E1,2.2618848E2,3.4712354E2,3.0628943E2,7.519857E2,4.4474597E2,9.9296045E2,2.4714355E1,7.374575E2,1.0066787E3,1.0788711E3,2.0533606E2,1.2787969E3,4.2196606E2,8.515918E2,2.7390625E2,2.6451074E2,0E0,0E0,5.123594E2,0E0,0E0,0E0,0E0,0E0,0E0,0E0,0E0,0E0,0E0,0E0,0E0,0E0,0E0,0E0,0E0,0E0,0E0,0E0,0E0,0E0,0E0,0E0,0E0,0E0,0E0,0E0,0E0,0E0,0E0,0E0,0E0,0E0,0E0,0E0,0E0],"parents":[2147483647,0,0,1,1,2,2,3,3,4,4,5,5,6,6,7,7,8,8,9,9,10,10,11,11,12,12,13,13,14,14,18,18,19,19,20,20,21,21,22,22,23,23,24,24,25,25,26,26,27,27,28,28,29,29,30,30,37,37,38,38,39,39,40,40,41,41,42,42,43,43,44,44,45,45,46,46,47,47,48,48,49,49,50,50,51,51,52,52,53,53,56,56],"right_children":[2,4,6,8,10,12,14,16,18,20,22,24,26,28,30,-1,-1,-1,32,34,36,38,40,42,44,46,48,50,52,54,56,-1,-1,-1,-1,-1,-1,58,60,62,64,66,68,70,72,74,76,78,80,82,84,86,88,90,-1,-1,92,-1,-1,-1,-1,-1,-1,-1,-1,-1,-1,-1,-1,-1,-1,-1,-1,-1,-1,-1,-1,-1,-1,-1,-1,-1,-1,-1,-1,-1,-1,-1,-1,-1,-1,-1,-1],"split_conditions":[-2.7120706E-1,-1.1951227E0,6.7321223E-1,-1.6524689E0,-8.3104324E-1,3.1418687E-1,1.1770648E0,-2.0191832E0,-1.4308149E0,-1.2589529E0,-4.7420853E-1,1.2125596E-1,4.997918E-1,9.844753E-1,1.1898746E0,-2.2834637E0,-1.8392458E0,-1.6014767E0,-1.1102312E0,-1.2240719E0,2.2916768E-2,-6.503464E-1,-2.9372966E-1,1.364082E0,9.76216E-1,1.0852554E0,1.2685044E0,1.2226741E0,-1.0040758E0,-3.3306677E-2,-1.0040758E0,-1.3975958E0,-1.0591128E0,-6.2704086E-1,-1.2900221E0,-9.986372E-1,-4.8948985E-1,-1.3652261E0,-9.995278E-1,-7.7250236E-1,4.418095E-1,-4.7364238E-1,6.2095344E-1,-5.238414E-2,-2.3375918E-1,-7.0689636E-1,5.2182436E-1,1.1071233E0,2.4709652E-1,1.2434262E0,1.0560216E0,9.038382E-1,1.2226741E0,3.0148405E-1,1.3285946E0,8.000838E-1,-7.165441E-2,-3.492111E-1,-7.581787E-1,-3.1785628E-1,-5.982153E-1,-7.4471897E-1,-4.0330777E-1,-1.1667086E-1,-4.21053E-1,-2.3248446E-1,2.9141748E-2,-1.4276157E-1,-5.257535E-1,-3.3467424E-3,2.5726902E-1,7.8529304E-1,3.538184E-1,4.156036E-1,1.989897E-1,3.68706E-1,7.889492E-1,6.3914156E-1,1.0250947E0,7.511259E-2,4.4475076E-1,8.701329E-1,2.0054427E-1,3.174623E-1,7.268876E-1,6.4275193E-1,1.2414389E0,1.2081574E0,8.0360603E-1,1.030795E0,4.6621177E-1,1.2520345E0,1.6787093E0],"split_indices":[15,10,15,10,15,15,15,10,10,15,15,10,10,10,10,0,0,0,15,7,12,10,10,6,20,0,19,6,6,19,6,0,0,0,0,0,0,7,7,10,12,11,19,15,1,7,20,18,16,11,20,13,6,25,0,0,25,0,0,0,0,0,0,0,0,0,0,0,0,0,0,0,0,0,0,0,0,0,0,0,0,0,0,0,0,0,0,0,0,0,0,0,0],"split_type":[0,0,0,0,0,0,0,0,0,0,0,0,0,0,0,0,0,0,0,0,0,0,0,0,0,0,0,0,0,0,0,0,0,0,0,0,0,0,0,0,0,0,0,0,0,0,0,0,0,0,0,0,0,0,0,0,0,0,0,0,0,0,0,0,0,0,0,0,0,0,0,0,0,0,0,0,0,0,0,0,0,0,0,0,0,0,0,0,0,0,0,0,0],"sum_hessian":[2.681E3,9.26E2,1.755E3,5.18E2,4.08E2,9.46E2,8.09E2,1.79E2,3.39E2,1.44E2,2.64E2,4.78E2,4.68E2,5.79E2,2.3E2,3.2E1,1.47E2,1.92E2,1.47E2,3.9E1,1.05E2,1.53E2,1.11E2,2.07E2,2.71E2,2.28E2,2.4E2,3.99E2,1.8E2,1.02E2,1.28E2,1.28E2,1.9E1,3E0,3.6E1,1.02E2,3E0,5.4E1,9.9E1,6.9E1,4.2E1,1.75E2,3.2E1,2.57E2,1.4E1,1.65E2,6.3E1,2.11E2,2.9E1,3.66E2,3.3E1,3.4E1,1.46E2,3E1,7.2E1,8E0,1.2E2,3E0,5.1E1,1.2E1,8.7E1,1E1,5.9E1,3.1E1,1.1E1,3.3E1,1.42E2,1.9E1,1.3E1,4.4E1,2.13E2,1.1E1,3E0,8.9E1,7.6E1,3.5E1,2.8E1,1.88E2,2.3E1,5E0,2.4E1,3.58E2,8E0,2.3E1,1E1,2.3E1,1.1E1,1.33E2,1.3E1,2.5E1,5E0,2.6E1,9.4E1],"tree_param":{"num_deleted":"0","num_feature":"26","num_nodes":"93","size_leaf_vector":"1"}},{"base_weights":[2.4332839E-1,-2.3079079E1,1.2731252E1,-3.0951653E1,-1.2570464E1,6.518558E0,2.0445225E1,-3.6268738E1,-2.765664E1,-1.8438051E1,-9.060011E0,8.852254E-1,9.425403E0,1.6696976E1,2.5710289E1,-2.2902505E0,-3.42831E1,-1.4624778E0,-1.1736196E0,-1.1039065E0,-1.663213E1,-1.1507634E1,-6.3190227E0,-3.6371493E-1,6.161438E0,6.239623E0,1.1373678E1,1.5420678E1,2.0327757E1,2.3777737E1,3.1523914E1,-1.8659071E0,-1.5969431E0,-8.81345E-1,-1.2073369E1,-1.1985961E1,-5.6374764E0,-3.966464E0,-8.721435E0,-4.8810263E0,4.8566544E-1,9.413389E0,2.15878E0,2.622575E0,7.463272E0,8.503848E0,1.26065855E1,1.5875352E1,9.899757E0,8.751378E0,2.0873764E1,1.4505624E1,2.4751715E1,8.4073687E-1,1.6598681E0,-3.1140605E-1,-6.9349146E-1,-6.729871E-1,-4.8197266E-1,-1.4290045E-1,-3.1176493E-1,-3.6159578E-1,-1.0610936E-3,-4.7248435E-1,-9.2164114E-2,-5.838863E-1,-1.08830355E-1,8.324886E-2,-1.9969632E-1,3.2654217E-1,6.6317886E-1,-1.6721795E-1,1.9917017E-1,2.276949E-2,3.2308355E-1,1.7228393E-1,4.2251918E-1,1.7404522E-1,4.939625E-1,6.001284E-1,9.528789E-1,5.851557E-1,8.2957363E-1,3.5750058E-1,8.105795E-1,5.4529583E-1,2.1919982E-1,8.2024634E-1,1.0896486E0,2.5834355E-1,8.239166E-1,1.0934309E0,1.3458545E0],"categories":[],"categories_nodes":[],"categories_segments":[],"categories_sizes":[],"default_left":[0,0,0,0,0,0,0,0,0,0,0,0,0,0,0,0,0,0,0,0,0,0,0,0,0,0,0,0,0,0,0,0,0,0,0,0,0,0,0,0,0,0,0,0,0,0,0,0,0,0,0,0,0,0,0,0,0,0,0,0,0,0,0,0,0,0,0,0,0,0,0,0,0,0,0,0,0,0,0,0,0,0,0,0,0,0,0,0,0,0,0,0,0],"id":14,"left_children":[1,3,5,7,9,11,13,15,17,19,21,23,25,27,29,-1,31,-1,-1,-1,33,35,37,39,41,43,45,47,49,51,53,-1,-1,-1,55,57,59,61,63,65,67,69,71,73,75,77,79,81,83,85,87,89,91,-1,-1,-1,-1,-1,-1,-1,-1,-1,-1,-1,-1,-1,-1,-1,-1,-1,-1,-1,-1,-1,-1,-1,-1,-1,-1,-1,-1,-1,-1,-1,-1,-1,-1,-1,-1,-1,-1,-1,-1],"loss_changes":[7.88411E5,7.770353E4,8.4355E4,8.433781E3,8.192949E3,1.6005594E4,1.5078E4,2.2655625E3,1.5543281E3,6.215508E2,1.6429785E3,2.203772E3,3.9306445E3,1.8238438E3,2.8963438E3,0E0,2.4921875E1,0E0,0E0,0E0,2.6038086E2,3.0691992E2,6.593115E2,1.0426141E3,8.115742E2,1.0726406E3,1.3024336E3,7.0878906E2,5.5389844E2,1.8766719E3,1.3567656E3,0E0,0E0,0E0,1.4262378E2,2.933086E2,1.2096558E0,8.236332E2,2.8199365E2,7.6358496E2,1.216186E3,2.9984033E2,3.1462048E2,5.288478E2,6.9940234E2,8.140293E2,8.474883E2,7.531328E2,3.8507324E2,1.6527344E1,9.463281E1,3.9168262E2,7.986719E2,0E0,0E0,0E0,0E0,0E0,0E0,0E0,0E0,0E0,0E0,0E0,0E0,0E0,0E0,0E0,0E0,0E0,0E0,0E0,0E0,0E0,0E0,0E0,0E0,0E0,0E0,0E0,0E0,0E0,0E0,0E0,0E0,0E0,0E0,0E0,0E0,0E0,0E0,0E0,0E0],"parents":[2147483647,0,0,1,1,2,2,3,3,4,4,5,5,6,6,7,7,8,8,9,9,10,10,11,11,12,12,13,13,14,14,16,16,20,20,21,21,22,22,23,23,24,24,25,25,26,26,27,27,28,28,29,29,30,30,34,34,35,35,36,36,37,37,38,38,39,39,40,40,41,41,42,42,43,43,44,44,45,45,46,46,47,47,48,48,49,49,50,50,51,51,52,52],"right_children":[2,4,6,8,10,12,14,16,18,20,22,24,26,28,30,-1,32,-1,-1,-1,34,36,38,40,42,44,46,48,50,52,54,-1,-1,-1,56,58,60,62,64,66,68,70,72,74,76,78,80,82,84,86,88,90,92,-1,-1,-1,-1,-1,-1,-1,-1,-1,-1,-1,-1,-1,-1,-1,-1,-1,-1,-1,-1,-1,-1,-1,-1,-1,-1,-1,-1,-1,-1,-1,-1,-1,-1,-1,-1,-1,-1,-1,-1],"split_conditions":[-2.512477E-1,-1.1392167E0,6.9536227E-1,-1.618482E0,-7.6873106E-1,1.9077949E-1,1.0758075E0,-2.0191832E0,-1.3165399E0,-1.1652411E0,-4.2450553E-1,6.035349E-1,3.857631E-1,9.844753E-1,1.4066031E0,-2.2902505E0,-5.034193E-1,-1.4624778E0,-1.1736196E0,-1.1039065E0,-4.4481263E-1,1.5185304E0,2.999835E-1,-2.5481707E-1,1.1294599E0,-3.589943E-1,4.1276672E-1,1.2226741E0,-3.313172E-1,9.005025E-1,-1.0040758E0,-1.8659071E0,-1.5969431E0,-8.81345E-1,3.4384266E-1,5.962916E-1,-1.7296079E-1,-7.9226923E-1,1.6838052E0,7.428063E-2,5.5618715E-1,7.930565E-1,1.2208073E0,8.2335776E-1,3.3136425E-4,-1.2290232E0,1.1746747E0,4.5570728E-1,1.0259243E0,5.5508412E-2,-1.0040758E0,-1.0040758E0,2.602257E-1,8.4073687E-1,1.6598681E0,-3.1140605E-1,-6.9349146E-1,-6.729871E-1,-4.8197266E-1,-1.4290045E-1,-3.1176493E-1,-3.6159578E-1,-1.0610936E-3,-4.7248435E-1,-9.2164114E-2,-5.838863E-1,-1.08830355E-1,8.324886E-2,-1.9969632E-1,3.2654217E-1,6.6317886E-1,-1.6721795E-1,1.9917017E-1,2.276949E-2,3.2308355E-1,1.7228393E-1,4.2251918E-1,1.7404522E-1,4.939625E-1,6.001284E-1,9.528789E-1,5.851557E-1,8.2957363E-1,3.5750058E-1,8.105795E-1,5.4529583E-1,2.1919982E-1,8.2024634E-1,1.0896486E0,2.5834355E-1,8.239166E-1,1.0934309E0,1.3458545E0],"split_indices":[15,10,15,10,15,15,15,10,10,15,10,18,10,10,10,0,0,0,0,0,22,0,19,10,19,0,15,6,23,16,6,0,0,0,23,21,21,0,19,0,12,18,12,22,10,6,18,10,18,19,6,6,19,0,0,0,0,0,0,0,0,0,0,0,0,0,0,0,0,0,0,0,0,0,0,0,0,0,0,0,0,0,0,0,0,0,0,0,0,0,0,0,0],"split_type":[0,0,0,0,0,0,0,0,0,0,0,0,0,0,0,0,0,0,0,0,0,0,0,0,0,0,0,0,0,0,0,0,0,0,0,0,0,0,0,0,0,0,0,0,0,0,0,0,0,0,0,0,0,0,0,0,0,0,0,0,0,0,0,0,0,0,0,0,0,0,0,0,0,0,0,0,0,0,0,0,0,0,0,0,0,0,0,0,0,0,0,0,0],"sum_hessian":[2.705E3,9.43E2,1.762E3,5.38E2,4.05E2,9.77E2,7.85E2,2.02E2,3.36E2,1.5E2,2.55E2,3.33E2,6.44E2,4.61E2,3.24E2,3.1E1,1.71E2,2.39E2,9.7E1,4.6E1,1.04E2,1.33E2,1.22E2,2.7E2,6.3E1,2.46E2,3.98E2,3.45E2,1.16E2,2.47E2,7.7E1,6.8E1,1.03E2,8.3E1,2.1E1,1.22E2,1.1E1,6.3E1,5.9E1,4.2E1,2.28E2,3.4E1,2.9E1,6.3E1,1.83E2,1.22E2,2.76E2,3.17E2,2.8E1,6E0,1.1E2,2.5E1,2.22E2,9E0,6.8E1,6E0,1.5E1,7.2E1,5E1,3E0,8E0,3.4E1,2.9E1,5.3E1,6E0,1.1E1,3.1E1,1.81E2,4.7E1,2.1E1,1.3E1,7E0,2.2E1,4.1E1,2.2E1,3.7E1,1.46E2,2.7E1,9.5E1,2.55E2,2.1E1,4.9E1,2.68E2,2.1E1,7E0,3E0,3E0,2.2E1,8.8E1,5E0,2E1,1E2,1.22E2],"tree_param":{"num_deleted":"0","num_feature":"26","num_nodes":"93","size_leaf_vector":"1"}},{"base_weights":[7.2445646E-2,-2.2934624E1,1.1537522E1,-3.0200466E1,-1.4007007E1,2.9606328E0,1.740559E1,-1.8604558E0,-2.8384903E1,-2.0293993E1,-1.0763957E1,-1.9319631E0,5.6392803E0,1.3115108E1,2.3041355E1,-1.4908342E0,-2.4895441E1,-2.0824625E1,-5.24061E-1,-1.2753552E1,-7.7893243E0,-4.0457377E0,8.772446E-3,1.2709142E0,6.622857E0,1.0709723E1,1.5182743E1,1.9738369E1,2.660182E1,-1.353352E0,-1.1117433E0,-1.755571E1,-1.0955929E0,-7.5507283E-1,-1.16325445E1,-5.852061E0,-1.078413E1,-4.895227E0,7.341645E0,2.856304E0,-1.4772581E0,5.316806E0,-2.3694766E0,4.1400166E0,8.008527E0,1.2071819E1,7.5885925E0,1.3938716E1,1.8410282E1,1.6650558E1,2.2143038E1,2.5023586E1,1.6308596E0,-9.247246E-1,-5.4380006E-1,-4.6360913E-1,-6.511006E-1,-3.5319254E-1,5.852279E-2,-6.1518055E-1,-2.340715E-1,-1.4207017E-1,-3.8717654E-1,-2.0672119E-1,6.8927085E-1,3.2542285E-2,3.352061E-1,3.5090465E-2,-1.9933558E-1,1.9135575E-1,5.578552E-1,-2.0362265E-1,3.214545E-1,2.3258488E-1,-1.9067661E-1,1.9697522E-1,4.5524985E-1,3.575798E-1,6.4414036E-1,-1.7010541E-1,4.1422462E-1,1.0958394E0,6.6899544E-1,9.568104E-1,1.3289237E-1,4.545404E-1,8.828642E-1,1.1266841E0,1.9431904E-1,1.2675811E0,5.7163155E-1],"categories":[],"categories_nodes":[],"categories_segments":[],"categories_sizes":[],"default_left":[0,0,0,0,0,0,0,0,0,0,0,0,0,0,0,0,0,0,0,0,0,0,0,0,0,0,0,0,0,0,0,0,0,0,0,0,0,0,0,0,0,0,0,0,0,0,0,0,0,0,0,0,0,0,0,0,0,0,0,0,0,0,0,0,0,0,0,0,0,0,0,0,0,0,0,0,0,0,0,0,0,0,0,0,0,0,0,0,0,0,0],"id":15,"left_children":[1,3,5,7,9,11,13,-1,15,17,19,21,23,25,27,-1,29,31,-1,33,35,37,39,41,43,45,47,49,51,-1,-1,53,-1,-1,55,57,59,61,63,65,67,69,71,73,75,77,79,81,83,85,87,89,-1,-1,-1,-1,-1,-1,-1,-1,-1,-1,-1,-1,-1,-1,-1,-1,-1,-1,-1,-1,-1,-1,-1,-1,-1,-1,-1,-1,-1,-1,-1,-1,-1,-1,-1,-1,-1,-1,-1],"loss_changes":[7.090344E5,5.7563375E4,9.0238016E4,5.1977812E3,7.9952188E3,9.578311E3,2.5446031E4,0E0,1.2256875E3,4.8675E2,1.4847129E3,1.0629292E3,2.0187969E3,2.8536953E3,4.868203E3,0E0,9.234375E1,6.629297E1,0E0,2.4015039E2,5.73417E2,1.235203E3,5.79844E2,1.309012E3,1.2901836E3,1.1137891E3,1.0410547E3,1.4243125E3,1.2476719E3,0E0,0E0,2.7935547E1,0E0,0E0,2.4434863E2,5.960344E2,3.301665E2,6.555288E2,7.235023E2,3.9375262E2,4.952705E2,3.2121216E2,7.3018274E2,5.8757837E2,1.0603711E3,6.879492E2,7.093838E2,7.6427734E2,9.4181445E2,6.7397266E2,8.583203E2,4.9560156E2,0E0,0E0,0E0,0E0,0E0,0E0,0E0,0E0,0E0,0E0,0E0,0E0,0E0,0E0,0E0,0E0,0E0,0E0,0E0,0E0,0E0,0E0,0E0,0E0,0E0,0E0,0E0,0E0,0E0,0E0,0E0,0E0,0E0,0E0,0E0,0E0,0E0,0E0,0E0],"parents":[2147483647,0,0,1,1,2,2,3,3,4,4,5,5,6,6,8,8,9,9,10,10,11,11,12,12,13,13,14,14,16,16,17,17,19,19,20,20,21,21,22,22,23,23,24,24,25,25,26,26,27,27,28,28,31,31,34,34,35,35,36,36,37,37,38,38,39,39,40,40,41,41,42,42,43,43,44,44,45,45,46,46,47,47,48,48,49,49,50,50,51,51],"right_children":[2,4,6,8,10,12,14,-1,16,18,20,22,24,26,28,-1,30,32,-1,34,36,38,40,42,44,46,48,50,52,-1,-1,54,-1,-1,56,58,60,62,64,66,68,70,72,74,76,78,80,82,84,86,88,90,-1,-1,-1,-1,-1,-1,-1,-1,-1,-1,-1,-1,-1,-1,-1,-1,-1,-1,-1,-1,-1,-1,-1,-1,-1,-1,-1,-1,-1,-1,-1,-1,-1,-1,-1,-1,-1,-1,-1],"split_conditions":[-3.4885392E-1,-1.2591561E0,4.8335475E-1,-1.7716695E0,-9.3692535E-1,1.10173255E-1,9.5361716E-1,-1.8604558E0,-1.4086481E0,-7.283148E-1,-4.8484468E-1,-1.6984968E-1,6.274739E-2,6.662786E-1,1.1209157E0,-1.4908342E0,-1.4214561E0,-7.0689636E-1,-5.24061E-1,-1.0942849E0,5.751142E-1,1.907937E0,-3.661198E-1,1.1906218E-1,3.081842E-1,7.045695E-1,9.376907E-1,5.5508412E-2,1.5687068E0,-1.353352E0,-1.1117433E0,-1.0478857E0,-1.0955929E0,-7.5507283E-1,-3.661198E-1,2.2173236E-1,1.4982306E0,3.6318073E-1,-1.2290232E0,1.6103779E-1,7.045695E-1,6.7297465E-1,8.288064E-1,8.4320354E-1,-1.2290232E0,-6.7529535E-1,3.3136425E-4,-9.995278E-1,1.4009805E0,5.1315165E-1,1.175984E0,1.7807486E0,1.6308596E0,-9.247246E-1,-5.4380006E-1,-4.6360913E-1,-6.511006E-1,-3.5319254E-1,5.852279E-2,-6.1518055E-1,-2.340715E-1,-1.4207017E-1,-3.8717654E-1,-2.0672119E-1,6.8927085E-1,3.2542285E-2,3.352061E-1,3.5090465E-2,-1.9933558E-1,1.9135575E-1,5.578552E-1,-2.0362265E-1,3.214545E-1,2.3258488E-1,-1.9067661E-1,1.9697522E-1,4.5524985E-1,3.575798E-1,6.4414036E-1,-1.7010541E-1,4.1422462E-1,1.0958394E0,6.6899544E-1,9.568104E-1,1.3289237E-1,4.545404E-1,8.828642E-1,1.1266841E0,1.9431904E-1,1.2675811E0,5.7163155E-1],"split_indices":[15,10,15,10,15,10,15,0,15,17,10,10,15,10,10,0,10,7,0,17,19,19,7,19,10,6,20,19,15,0,0,11,0,0,7,20,2,6,6,25,6,18,18,11,6,19,10,7,19,18,11,11,0,0,0,0,0,0,0,0,0,0,0,0,0,0,0,0,0,0,0,0,0,0,0,0,0,0,0,0,0,0,0,0,0,0,0,0,0,0,0],"split_type":[0,0,0,0,0,0,0,0,0,0,0,0,0,0,0,0,0,0,0,0,0,0,0,0,0,0,0,0,0,0,0,0,0,0,0,0,0,0,0,0,0,0,0,0,0,0,0,0,0,0,0,0,0,0,0,0,0,0,0,0,0,0,0,0,0,0,0,0,0,0,0,0,0,0,0,0,0,0,0,0,0,0,0,0,0,0,0,0,0,0,0],"sum_hessian":[2.686E3,8.93E2,1.793E3,4.91E2,4.02E2,7.29E2,1.064E3,9.7E1,3.94E2,1.35E2,2.67E2,2.58E2,4.71E2,6.06E2,4.58E2,2.74E2,1.2E2,1.27E2,8E0,1.58E2,1.09E2,1.23E2,1.35E2,8.7E1,3.84E2,2.83E2,3.23E2,2.41E2,2.17E2,6.1E1,5.9E1,3.6E1,9.1E1,4.7E1,1.11E2,6.8E1,4.1E1,1.15E2,8E0,4.6E1,8.9E1,4.1E1,4.6E1,1.39E2,2.45E2,1.95E2,8.8E1,2.37E2,8.6E1,1.09E2,1.32E2,1.76E2,4.1E1,3E1,6E0,4.4E1,6.7E1,5.8E1,1E1,3.2E1,9E0,6.8E1,4.7E1,3E0,5E0,3E1,1.6E1,4.8E1,4.1E1,3.4E1,7E0,3.9E1,7E0,1.31E2,8E0,5.3E1,1.92E2,2.9E1,1.66E2,5E0,8.3E1,1.3E1,2.24E2,8.2E1,4E0,1.4E1,9.5E1,1.29E2,3E0,1.71E2,5E0],"tree_param":{"num_deleted":"0","num_feature":"26","num_nodes":"91","size_leaf_vector":"1"}},{"base_weights":[9.776987E-2,-2.1202274E1,1.1523129E1,-2.9211113E1,-1.2380541E1,5.8396096E0,1.8456251E1,-2.864591E1,-3.8691075E0,-1.8467001E1,-9.103774E0,9.446251E-1,8.297114E0,1.4586571E1,2.2809158E1,-1.7114018E0,-2.6160622E1,-1.8868788E1,-2.7308896E-1,-1.09018545E1,-6.221774E0,-3.634503E-1,5.566883E0,5.9262347E0,1.0553204E1,1.8359545E1,1.29912E1,2.6724705E1,2.0248236E1,-1.3894199E0,-2.3446026E1,-2.1086437E1,-1.7246891E1,-1.13535E1,-5.669557E0,-8.399325E0,-3.503891E0,-7.8859444E0,8.581935E-2,3.952962E0,1.233154E1,2.8847415E0,7.221948E0,9.108323E0,1.2716247E1,1.2075365E1,2.1014235E1,8.76607E0,1.440413E1,2.3916021E1,1.5650009E0,1.6160353E1,2.2169329E1,-1.2247432E0,-9.530074E-1,-1.0798877E0,-4.3796083E-1,-8.7677956E-1,-4.3770742E-1,-1.1649292E-1,-5.754728E-1,-6.11459E-2,-4.9754158E-1,-5.0961804E-1,-2.9272416E-1,-2.2961855E-1,1.5221475E-1,-5.793813E-3,-6.0893315E-1,2.2845292E-1,-4.564818E-2,4.9259624E-1,1.2583397E-1,7.067605E-1,2.3572396E-1,-2.0339314E-2,2.6661476E-1,3.7962633E-1,-2.456411E-1,5.842573E-1,3.55566E-1,5.3170925E-1,8.312398E-1,2.3388028E-1,6.5257305E-1,3.6928222E-1,1.071587E0,1.5015753E-1,5.604205E-1,5.896486E-1,8.2782793E-1,1.3277647E0,9.856761E-1,5.530046E-1,8.9685595E-1,1.0019889E0,1.2271125E0],"categories":[],"categories_nodes":[],"categories_segments":[],"categories_sizes":[],"default_left":[0,0,0,0,0,0,0,0,0,0,0,0,0,0,0,0,0,0,0,0,0,0,0,0,0,0,0,0,0,0,0,0,0,0,0,0,0,0,0,0,0,0,0,0,0,0,0,0,0,0,0,0,0,0,0,0,0,0,0,0,0,0,0,0,0,0,0,0,0,0,0,0,0,0,0,0,0,0,0,0,0,0,0,0,0,0,0,0,0,0,0,0,0,0,0,0,0],"id":16,"left_children":[1,3,5,7,9,11,13,15,-1,17,19,21,23,25,27,-1,29,31,-1,33,35,37,39,41,43,45,47,49,51,-1,53,55,57,59,61,63,65,67,69,71,73,75,77,79,81,83,85,87,89,91,-1,93,95,-1,-1,-1,-1,-1,-1,-1,-1,-1,-1,-1,-1,-1,-1,-1,-1,-1,-1,-1,-1,-1,-1,-1,-1,-1,-1,-1,-1,-1,-1,-1,-1,-1,-1,-1,-1,-1,-1,-1,-1,-1,-1,-1,-1],"loss_changes":[6.4198544E5,6.47045E4,6.7547375E4,1.0895781E4,8.6044375E3,1.13590625E4,1.268425E4,5.7299062E3,0E0,6.9398047E2,1.4228926E3,1.9192087E3,3.3002852E3,2.2382969E3,3.0840938E3,0E0,8.236406E2,1.648164E2,0E0,3.4984375E2,6.381504E2,8.396046E2,7.138589E2,1.1958965E3,8.8522656E2,1.7448438E3,1.6205703E3,1.0449922E3,1.3891641E3,0E0,1.3597656E2,1.7336719E2,6.698047E1,1.98375E2,2.9131012E2,2.216294E2,3.8476898E2,4.6432532E2,1.056816E3,4.6537848E2,1.1007739E2,7.599436E2,1.00889453E3,9.23626E2,8.458496E2,2.1157275E2,3.1109766E2,1.0346187E3,1.0271484E3,4.8120703E2,0E0,4.7836133E2,2.5665625E2,0E0,0E0,0E0,0E0,0E0,0E0,0E0,0E0,0E0,0E0,0E0,0E0,0E0,0E0,0E0,0E0,0E0,0E0,0E0,0E0,0E0,0E0,0E0,0E0,0E0,0E0,0E0,0E0,0E0,0E0,0E0,0E0,0E0,0E0,0E0,0E0,0E0,0E0,0E0,0E0,0E0,0E0,0E0,0E0],"parents":[2147483647,0,0,1,1,2,2,3,3,4,4,5,5,6,6,7,7,9,9,10,10,11,11,12,12,13,13,14,14,16,16,17,17,19,19,20,20,21,21,22,22,23,23,24,24,25,25,26,26,27,27,28,28,30,30,31,31,32,32,33,33,34,34,35,35,36,36,37,37,38,38,39,39,40,40,41,41,42,42,43,43,44,44,45,45,46,46,47,47,48,48,49,49,51,51,52,52],"right_children":[2,4,6,8,10,12,14,16,-1,18,20,22,24,26,28,-1,30,32,-1,34,36,38,40,42,44,46,48,50,52,-1,54,56,58,60,62,64,66,68,70,72,74,76,78,80,82,84,86,88,90,92,-1,94,96,-1,-1,-1,-1,-1,-1,-1,-1,-1,-1,-1,-1,-1,-1,-1,-1,-1,-1,-1,-1,-1,-1,-1,-1,-1,-1,-1,-1,-1,-1,-1,-1,-1,-1,-1,-1,-1,-1,-1,-1,-1,-1,-1,-1],"split_conditions":[-2.512477E-1,-1.245118E0,6.865996E-1,1.737655E0,-8.872703E-1,1.9077949E-1,9.844753E-1,-1.6715277E0,-3.8691075E0,-3.7568083E-1,-4.627684E-1,5.806923E-1,4.6679E-1,-9.995278E-1,-7.0689636E-1,-1.7114018E0,-1.4416513E0,-5.034193E-1,-2.7308896E-1,1.9669676E-1,-3.1195456E-1,-5.143986E-1,9.6348E-1,-3.589943E-1,7.3967075E-1,-2.7158436E-1,6.75022E-1,1.0418465E0,9.76216E-1,-1.3894199E0,-1.2467825E0,-2.545783E-1,-6.166391E-1,-1.6568869E0,1.1741213E0,8.230789E-1,1.0852554E0,-7.7762455E-1,-9.995278E-1,-1.7935659E-1,1.1813612E0,2.7271956E-1,9.1039956E-1,5.7097334E-1,6.929076E-1,2.780951E-1,-2.9371446E-1,9.9868476E-1,9.4083047E-1,-9.995278E-1,1.5650009E0,-3.661198E-1,1.3643831E0,-1.2247432E0,-9.530074E-1,-1.0798877E0,-4.3796083E-1,-8.7677956E-1,-4.3770742E-1,-1.1649292E-1,-5.754728E-1,-6.11459E-2,-4.9754158E-1,-5.0961804E-1,-2.9272416E-1,-2.2961855E-1,1.5221475E-1,-5.793813E-3,-6.0893315E-1,2.2845292E-1,-4.564818E-2,4.9259624E-1,1.2583397E-1,7.067605E-1,2.3572396E-1,-2.0339314E-2,2.6661476E-1,3.7962633E-1,-2.456411E-1,5.842573E-1,3.55566E-1,5.3170925E-1,8.312398E-1,2.3388028E-1,6.5257305E-1,3.6928222E-1,1.071587E0,1.5015753E-1,5.604205E-1,5.896486E-1,8.2782793E-1,1.3277647E0,9.856761E-1,5.530046E-1,8.9685595E-1,1.0019889E0,1.2271125E0],"split_indices":[15,10,15,19,15,15,10,15,0,24,15,20,10,7,7,0,10,0,0,24,10,10,18,0,10,19,20,18,20,0,15,11,18,13,23,23,0,11,7,19,19,10,11,11,14,18,11,7,0,7,0,7,7,0,0,0,0,0,0,0,0,0,0,0,0,0,0,0,0,0,0,0,0,0,0,0,0,0,0,0,0,0,0,0,0,0,0,0,0,0,0,0,0,0,0,0,0],"split_type":[0,0,0,0,0,0,0,0,0,0,0,0,0,0,0,0,0,0,0,0,0,0,0,0,0,0,0,0,0,0,0,0,0,0,0,0,0,0,0,0,0,0,0,0,0,0,0,0,0,0,0,0,0,0,0,0,0,0,0,0,0,0,0,0,0,0,0,0,0,0,0,0,0,0,0,0,0,0,0,0,0,0,0,0,0,0,0,0,0,0,0,0,0,0,0,0,0],"sum_hessian":[2.636E3,9.2E2,1.716E3,4.81E2,4.39E2,9.44E2,7.72E2,4.77E2,4E0,1.52E2,2.87E2,3.16E2,6.28E2,4.11E2,3.61E2,1.43E2,3.34E2,1.47E2,5E0,1.75E2,1.12E2,2.47E2,6.9E1,3.08E2,3.2E2,1.19E2,2.92E2,1.39E2,2.22E2,2.03E2,1.31E2,5.7E1,9E1,1.6E2,1.5E1,6.1E1,5.1E1,1.3E1,2.34E2,5.7E1,1.2E1,9.3E1,2.15E2,1.95E2,1.25E2,3.7E1,8.2E1,7.5E1,2.17E2,9E1,4.9E1,7.4E1,1.48E2,1.02E2,2.9E1,5.4E1,3E0,8.6E1,4E0,3E0,1.57E2,8E0,7E0,3.4E1,2.7E1,4.4E1,7E0,5E0,8E0,4.2E1,1.92E2,1E1,4.7E1,9E0,3E0,4E1,5.3E1,2.09E2,6E0,8.3E1,1.12E2,8.4E1,4.1E1,5E0,3.2E1,3E0,7.9E1,2.3E1,5.2E1,1.01E2,1.16E2,5.2E1,3.8E1,2.1E1,5.3E1,8.3E1,6.5E1],"tree_param":{"num_deleted":"0","num_feature":"26","num_nodes":"97","size_leaf_vector":"1"}},{"base_weights":[-2.0952493E-2,-2.021827E1,1.0873383E1,-2.740532E1,-1.1254723E1,5.4954658E0,1.7606026E1,-2.689377E1,-3.7143428E0,-1.5673833E1,-7.4697447E0,5.9837246E-1,7.9968133E0,1.5182555E1,2.3589388E1,-1.6019204E0,-2.4793318E1,-1.8042929E1,-1.3140426E1,-9.113382E0,-4.6869226E0,-2.1892307E0,2.7353523E0,5.935577E0,1.0359004E1,1.3413711E1,1.8608347E1,2.1656555E1,2.7930521E1,-1.3590208E0,-2.2825933E1,-1.9403347E1,-1.4854759E1,-1.204281E1,-8.048107E-1,-8.0860384E-2,-9.37635E0,-1.9186205E-1,-6.739037E0,1.9158968E0,-3.6024427E0,4.9685965E0,4.2274E-1,3.5246613E0,7.5487223E0,2.7658715E0,1.0755544E1,1.3945855E1,7.9950395E0,1.2167612E1,1.910742E1,1.859584E1,2.3277224E1,1.1781287E0,1.5779507E0,-1.2182703E0,-1.0288881E0,-8.840458E-1,-1.2692735E0,-7.794612E-1,-4.4673988E-1,-6.303641E-1,-2.8987533E-1,-6.3714E-1,-4.2701504E-1,-3.1102988E-1,3.882051E-2,-3.606405E-1,-7.986358E-3,1.4029762E-4,7.0695585E-1,-5.6535405E-1,-1.3405262E-1,1.864693E-1,4.994038E-1,-8.0554195E-2,3.485887E-1,1.0942973E-1,3.6418626E-1,1.7189012E-1,4.2494765E-1,-1.5528506E-1,5.3864974E-1,4.7021842E-1,5.991781E-1,4.888179E-1,7.4162734E-1,5.596645E-1,8.569503E-2,7.050018E-1,2.538137E-1,1.0436491E0,8.41527E-1,2.6507327E-1,9.605792E-1,6.635206E-1,1.1950026E0],"categories":[],"categories_nodes":[],"categories_segments":[],"categories_sizes":[],"default_left":[0,0,0,0,0,0,0,0,0,0,0,0,0,0,0,0,0,0,0,0,0,0,0,0,0,0,0,0,0,0,0,0,0,0,0,0,0,0,0,0,0,0,0,0,0,0,0,0,0,0,0,0,0,0,0,0,0,0,0,0,0,0,0,0,0,0,0,0,0,0,0,0,0,0,0,0,0,0,0,0,0,0,0,0,0,0,0,0,0,0,0,0,0,0,0,0,0],"id":17,"left_children":[1,3,5,7,9,11,13,15,-1,17,19,21,23,25,27,-1,29,31,33,35,37,39,41,43,45,47,49,51,53,-1,55,57,59,61,-1,-1,63,65,67,69,71,73,75,77,79,81,83,85,87,89,91,93,95,-1,-1,-1,-1,-1,-1,-1,-1,-1,-1,-1,-1,-1,-1,-1,-1,-1,-1,-1,-1,-1,-1,-1,-1,-1,-1,-1,-1,-1,-1,-1,-1,-1,-1,-1,-1,-1,-1,-1,-1,-1,-1,-1,-1],"loss_changes":[5.8463725E5,5.9664094E4,6.2395266E4,1.0366844E4,6.8387227E3,1.1765961E4,1.0745344E4,4.7326562E3,0E0,9.0614844E2,9.8961914E2,1.9480417E3,3.0335898E3,3.0678984E3,1.2277266E3,0E0,1.1028438E3,1.2471875E2,1.14796875E2,2.6168457E2,7.9131067E2,8.308716E2,9.528168E2,1.3023789E3,8.571367E2,9.3878906E2,3.5582812E2,3.3678125E2,2.6521875E2,0E0,2.1400781E2,2.0629688E2,1.7446289E0,1.8594043E2,0E0,0E0,2.7181836E2,1.6882295E2,1.8201953E2,8.637589E2,7.2077795E2,5.460769E2,1.2371698E3,6.812195E2,7.6647656E2,7.864549E2,3.4975977E2,1.0762578E3,6.826282E2,1.457622E2,3.2429688E2,3.7866797E2,2.8990625E2,0E0,0E0,0E0,0E0,0E0,0E0,0E0,0E0,0E0,0E0,0E0,0E0,0E0,0E0,0E0,0E0,0E0,0E0,0E0,0E0,0E0,0E0,0E0,0E0,0E0,0E0,0E0,0E0,0E0,0E0,0E0,0E0,0E0,0E0,0E0,0E0,0E0,0E0,0E0,0E0,0E0,0E0,0E0,0E0],"parents":[2147483647,0,0,1,1,2,2,3,3,4,4,5,5,6,6,7,7,9,9,10,10,11,11,12,12,13,13,14,14,16,16,17,17,18,18,19,19,20,20,21,21,22,22,23,23,24,24,25,25,26,26,27,27,28,28,30,30,31,31,32,32,33,33,36,36,37,37,38,38,39,39,40,40,41,41,42,42,43,43,44,44,45,45,46,46,47,47,48,48,49,49,50,50,51,51,52,52],"right_children":[2,4,6,8,10,12,14,16,-1,18,20,22,24,26,28,-1,30,32,34,36,38,40,42,44,46,48,50,52,54,-1,56,58,60,62,-1,-1,64,66,68,70,72,74,76,78,80,82,84,86,88,90,92,94,96,-1,-1,-1,-1,-1,-1,-1,-1,-1,-1,-1,-1,-1,-1,-1,-1,-1,-1,-1,-1,-1,-1,-1,-1,-1,-1,-1,-1,-1,-1,-1,-1,-1,-1,-1,-1,-1,-1,-1,-1,-1,-1,-1,-1],"split_conditions":[-2.512477E-1,-1.1951227E0,6.9536227E-1,1.737655E0,-7.0885295E-1,1.9077949E-1,1.1770648E0,-1.6715277E0,-3.7143428E0,-1.076303E0,6.856542E-1,4.0475372E-2,4.8335475E-1,9.844753E-1,1.5105325E0,-1.6019204E0,-1.5236633E0,-7.2187287E-1,1.2226741E0,-1.2359486E0,9.9632514E-1,-4.8243377E-1,1.6554251E-1,3.081842E-1,3.3136425E-4,1.0174702E0,-3.1255615E-1,6.306748E-2,1.1323156E0,-1.3590208E0,-1.3718938E0,1.364082E0,1.0773404E0,-5.0218225E-1,-8.048107E-1,-8.0860384E-2,-7.7250236E-1,-5.713712E-1,4.1063055E-1,1.907937E0,-4.7450083E-1,6.78762E-1,8.550716E-1,1.0852554E0,-1.2290232E0,3.7287652E-1,6.0076755E-1,4.997918E-1,3.2027605E-1,1.1496471E0,1.0414927E0,4.5632192E-1,-1.0040758E0,1.1781287E0,1.5779507E0,-1.2182703E0,-1.0288881E0,-8.840458E-1,-1.2692735E0,-7.794612E-1,-4.4673988E-1,-6.303641E-1,-2.8987533E-1,-6.3714E-1,-4.2701504E-1,-3.1102988E-1,3.882051E-2,-3.606405E-1,-7.986358E-3,1.4029762E-4,7.0695585E-1,-5.6535405E-1,-1.3405262E-1,1.864693E-1,4.994038E-1,-8.0554195E-2,3.485887E-1,1.0942973E-1,3.6418626E-1,1.7189012E-1,4.2494765E-1,-1.5528506E-1,5.3864974E-1,4.7021842E-1,5.991781E-1,4.888179E-1,7.4162734E-1,5.596645E-1,8.569503E-2,7.050018E-1,2.538137E-1,1.0436491E0,8.41527E-1,2.6507327E-1,9.605792E-1,6.635206E-1,1.1950026E0],"split_indices":[15,10,15,19,15,15,15,15,0,16,25,10,15,10,15,0,10,22,6,20,23,13,19,10,10,11,23,19,18,0,15,6,1,20,0,0,10,4,22,19,10,22,18,0,6,19,10,10,19,11,12,12,6,0,0,0,0,0,0,0,0,0,0,0,0,0,0,0,0,0,0,0,0,0,0,0,0,0,0,0,0,0,0,0,0,0,0,0,0,0,0,0,0,0,0,0,0],"split_type":[0,0,0,0,0,0,0,0,0,0,0,0,0,0,0,0,0,0,0,0,0,0,0,0,0,0,0,0,0,0,0,0,0,0,0,0,0,0,0,0,0,0,0,0,0,0,0,0,0,0,0,0,0,0,0,0,0,0,0,0,0,0,0,0,0,0,0,0,0,0,0,0,0,0,0,0,0,0,0,0,0,0,0,0,0,0,0,0,0,0,0,0,0,0,0,0,0],"sum_hessian":[2.655E3,9.3E2,1.725E3,5.15E2,4.15E2,9.6E2,7.65E2,5.11E2,4E0,1.9E2,2.25E2,3.25E2,6.35E2,5.47E2,2.18E2,1.44E2,3.67E2,9.5E1,9.5E1,1.4E2,8.5E1,1.41E2,1.84E2,3.41E2,2.94E2,3.64E2,1.83E2,1.55E2,6.3E1,1.6E2,2.07E2,6.3E1,3.2E1,7.3E1,2.2E1,5E0,1.35E2,2.7E1,5.8E1,3.6E1,1.05E2,9.3E1,9.1E1,1.38E2,2.03E2,1.5E1,2.79E2,3.3E2,3.4E1,1.5E1,1.68E2,5.8E1,9.7E1,3.2E1,3.1E1,1.17E2,9E1,5.2E1,1.1E1,2.7E1,5E0,6.6E1,7E0,2.4E1,1.11E2,3E0,2.4E1,5.4E1,4E0,3.2E1,4E0,1E1,9.5E1,7.6E1,1.7E1,7E1,2.1E1,1.03E2,3.5E1,3.9E1,1.64E2,9E0,6E0,1.37E2,1.42E2,6E1,2.7E2,2.2E1,1.2E1,1.1E1,4E0,9E1,7.8E1,3E0,5.5E1,7E0,9E1],"tree_param":{"num_deleted":"0","num_feature":"26","num_nodes":"97","size_leaf_vector":"1"}},{"base_weights":[-3.5942957E-2,-2.0258617E1,9.935001E0,-2.6228188E1,-1.2171968E1,